{"dataset": "sportcub_mocap_4_17_26", "labels": ["ground", "ground_effect", "stabilized", "manual"], "methods": ["6DOF-LinearSS", "6DOF-RidgeResidual", "6DOF-GreyBoxOEM", "6DOF-EquationError-LS", "6DOF-SINDy", "6DOF-Koopman-EDMD", "6DOF-Symbolic-Stepwise", "6DOF-Subspace-Hankel", "6DOF-GP-RBF"], "models": {"linear_weights": [[1.00661, -0.000358, 8e-06, -7.2e-05, -0.000595, 7.1e-05, 4.3e-05, 7.5e-05, 2.9e-05, 5.1e-05, -0.000302, 0.000737, -0.000724], [0.001134, 1.007314, -0.000343, -9.8e-05, -0.000721, 0.000739, -0.000359, -0.000353, 0.000488, -0.000216, -0.005604, 0.000525, -0.000544], [-0.061104, 0.009672, 1.004326, -0.002004, 0.003842, 0.003545, -0.002024, -0.012307, -0.000873, -0.005886, -0.015258, 0.001423, 0.031768], [-0.020714, 0.003893, 0.001587, 1.00388, -0.004844, 0.012304, -0.002504, -0.004094, 0.001156, -0.001801, -0.039676, 0.042242, -0.007113], [0.013423, 0.001919, -0.000892, -4.9e-05, 1.011992, -0.002058, 0.000251, -0.001527, -0.000919, -0.000752, 0.029345, -0.007973, 0.026693], [0.032883, -0.004344, -0.004401, -0.006182, 0.003388, 0.991545, 0.003635, -0.000181, -0.000991, -0.000747, 0.031407, -0.081635, 0.013502], [0.012308, -0.001594, 0.000643, -0.002615, 0.001474, -0.002667, 0.999816, 0.002609, 0.000932, 0.001261, 0.003955, 0.004508, -0.006846], [0.013169, 0.014754, 0.003984, -0.001768, 0.051932, -0.006305, 0.000116, 1.005225, -0.006477, -0.003058, 0.038591, -0.001218, 0.027064], [-0.015527, -0.030889, -0.015851, 0.047325, 0.051508, 0.009077, -0.003246, -0.003894, 0.994514, -0.00096, 0.039997, -0.050364, 0.025523], [-0.002079, 0.002029, -0.000335, -0.000938, -0.001336, 0.001529, -0.00043, -0.000842, 0.001237, 0.999641, -0.004712, -0.001642, -0.005823], [-0.008719, -0.001518, 0.002855, -0.004129, -0.025127, 0.00253, -5.5e-05, -0.000212, -0.00179, 0.001276, 0.967648, 0.00312, -0.005032], [0.016802, -0.003072, -0.005915, 0.008231, -0.00684, 0.021393, 0.001303, 0.001314, 0.002913, 0.001089, -0.014993, 0.996046, -0.00268], [0.013608, 0.007661, -0.001862, 0.00453, -0.025018, 0.002103, 3.4e-05, 0.001541, 0.004093, -0.001106, -0.029817, -0.005166, 0.972009], [-0.026227, 0.012686, 0.006265, 0.010571, 0.007422, 0.012968, -0.001161, -0.007001, -0.001114, -0.002524, -0.01963, 0.013365, 0.014746], [0.004409, 0.004753, -0.004357, -0.004885, 0.006059, 0.000245, 0.001379, 0.001136, -0.001703, 0.000196, 0.015903, -0.02797, 0.007917], [0.016026, 0.00654, 0.004304, -0.00532, -0.019148, 0.004727, 0.001187, -0.003599, -0.001967, -0.000983, -0.101641, 0.004792, -0.044297], [0.002266, -0.014655, 0.000177, 0.002445, -0.030976, 0.003544, 0.000882, 0.000897, -0.005266, -0.001245, -0.027799, 0.005852, 0.044828], [0.094898, -0.021491, -0.008436, -0.01958, 0.015648, -0.055508, 0.010483, 0.020184, -0.004726, 0.008786, 0.171274, -0.169617, 0.02197]], "residual_weights": [[1e-06, -6e-06, 2e-06, -0.000354, -0.000939, 0.000798, 3e-06, 1e-05, -1e-06, 8e-06, -0.00257, 0.00127, -0.000675], [1.4e-05, -5.2e-05, -4e-06, 0.001595, -0.002807, 0.000487, -2e-06, -0.000162, 0.000196, 0.0, -0.002453, -0.004011, -0.001712], [0.000361, -0.000154, -0.000189, 0.025331, 0.020178, -0.061781, -0.000155, -0.002284, -0.000521, -0.000112, 0.11693, -0.072961, -0.006622], [0.000135, -0.000283, 0.000318, 0.022374, -0.011877, 0.009443, -2.8e-05, -0.00126, 0.001149, -8.7e-05, -0.024063, -0.034533, 0.009283], [4.3e-05, 0.000115, -2.3e-05, 0.003847, 0.061318, -0.004488, 2.6e-05, -0.00015, -0.000195, 4.8e-05, 0.121905, -0.011083, -0.027164], [0.000159, 0.000378, 0.00027, -0.009334, 0.016222, 0.138847, 0.00014, 0.000978, -0.001202, 9.8e-05, 0.16444, 0.046955, -0.053219], [-2.7e-05, -1.9e-05, 7.1e-05, -0.010915, -0.001555, 0.005026, 2.8e-05, 0.000409, 0.000345, -7.7e-05, -0.041638, 0.011679, 0.009398], [-0.000528, 8e-05, 8.8e-05, -0.009988, 0.113613, -0.014717, -0.000435, 0.000741, -0.001994, 0.000487, 0.20941, 0.130401, 0.007292], [7.6e-05, -0.000331, -2.8e-05, 0.090482, 0.108694, -0.022797, -0.001087, 0.000409, -0.004629, -0.000875, 0.249746, -0.000566, 0.082003], [-2e-06, -5.1e-05, -3e-06, -0.002651, -0.004424, -0.00058, 9.5e-05, 2.2e-05, 0.000765, 9.6e-05, 0.025073, -0.005347, -0.011579], [-2.8e-05, -5.7e-05, 6e-06, -0.00872, -0.054544, 0.005375, -3.8e-05, 9.8e-05, -0.000169, 8.7e-05, 0.04724, 0.006797, -0.008681], [0.000137, 0.000155, 8e-06, 0.020765, -0.013618, -0.000992, 0.00024, 0.000434, 0.000357, 6e-05, -0.058999, -0.003546, 0.016847], [8.5e-05, 0.00033, -2.3e-05, 0.006824, 0.033812, -0.002983, 0.000194, -9.3e-05, 0.000943, -3.2e-05, -0.135888, -0.023802, 0.01735], [-0.000178, 2.8e-05, 4.9e-05, -0.011465, 0.019458, -0.038926, 1e-05, -0.00152, -0.0005, -2.7e-05, 0.018382, -0.135305, 0.008596], [9.7e-05, 9.5e-05, 0.000126, 0.000382, 0.011388, 0.051731, 2.3e-05, 0.000502, 0.000506, -6e-06, 0.063954, 0.416259, 0.001716], [-4.9e-05, 0.000365, -4e-06, -0.00536, -0.060337, -0.002863, 0.00015, -0.001755, 0.000684, 0.000269, -1.460556, -0.001381, 0.050348], [7e-06, -0.00032, -2.1e-05, 0.000303, -0.097599, 0.008144, 0.000206, 0.000244, -0.00102, -0.000638, 0.058309, 0.035696, 0.416083], [-0.000605, 0.00116, -0.001654, -0.093955, 0.033448, -0.085442, 8.1e-05, 0.005763, -0.00446, 0.00041, 0.077167, 0.186958, -0.038055]], "surrogates": {"6DOF-GP-RBF": {"kind": "rbf_residual", "weights": [[0.0195201, 0.0022888, -0.1429941, -1.590741, 0.0085643, 0.0810914], [0.0074769, 0.0104457, 0.0156475, -0.0820329, 0.1076326, 0.0071453], [-0.0393578, -0.0224474, -0.0050805, -0.1340795, 0.029419, 0.0222207], [0.0316727, 0.0607022, -0.0476153, -0.1598068, 0.0193146, -0.0746062], [0.0214925, 0.0240991, 0.060188, 0.477287, -0.0863455, -0.0819159], [-0.159011, -0.1225066, 0.0186509, -0.4940604, 0.249121, 0.1156525], [-0.0017384, 0.0121028, 0.012996, -0.0644552, 0.1032864, -0.0068838], [-2.36e-05, -0.1887278, -0.0665807, -0.3697088, 0.0955875, 0.3634396], [-0.1421963, -0.2027944, 0.6723683, 0.2921136, -0.5029657, -0.1096713], [0.1328939, 0.1051261, 0.1206191, 0.1010777, 0.5914071, 0.0496711], [0.0171878, -0.0139446, 0.0373788, -0.1837197, 0.1578917, -0.0076661], [0.005569, -0.027764, -0.0321297, -0.1732566, -0.0607928, 0.0224514], [-0.1034379, 0.1020522, 0.0340472, -6.5256842, -0.0635312, 0.0592012], [-0.0506676, 0.198182, -0.0442727, 0.3583568, -0.0249418, -1.4623443], [0.0126049, -0.0121886, 0.0005691, -0.2012775, 0.0744875, 0.0375401], [-0.5594794, -1.2407515, -0.226029, 8.2364381, -0.9119968, 1.4609179], [-0.0053313, -0.0393397, -0.0764299, 0.3413374, 0.0316081, -0.0141994], [-0.1934528, -0.0800069, -0.153863, -1.2416815, 1.3641344, 0.1891406], [-1.2357737, -0.6905029, -1.2113267, -3.8730149, 5.4051969, 0.7546948], [0.2338158, 1.0507885, 0.5977232, -8.5826295, -0.1813665, -0.8732468], [0.9911534, 0.4773497, 0.1269137, 6.1365609, -3.9170941, -0.6099149], [-0.1451002, -0.0991177, -0.2421557, -0.7163279, 0.8278027, 0.0938949], [0.3125455, 1.3629346, 1.0061789, -10.6310213, 1.3690951, -0.7257961], [-0.0168766, 0.0872293, -0.029447, 0.0074069, 0.0046895, -0.0245938], [0.0209157, 0.0242751, 0.1389011, 0.0869337, -0.1294846, -0.0071265], [0.0094519, -0.0541821, 0.0143266, -1.5012784, 0.0519193, 0.0694653], [0.2575728, 0.1163862, 0.1832871, 1.3185239, -1.5724494, -0.2093638], [0.15518, 0.0064222, -0.241891, -1.8379281, 0.1543148, -0.6342938], [0.0640642, -0.0347801, 0.1288213, 0.0385541, -0.2696132, 0.0868561], [-0.0055189, -0.1656046, 0.0220868, -0.4355014, 0.0396248, 0.2588793], [-0.0032501, -0.0193448, 0.0028771, 0.0237143, 0.020915, -0.0675439], [-0.0239949, 0.0592514, 0.1892859, 1.180792, -0.0051631, 0.0005267], [0.2327632, 0.1370208, 0.1316413, 0.8108429, 0.3628642, -0.11847], [-0.0111291, 0.0274713, -0.0222666, 0.0297342, 0.0406481, -0.2438018], [0.1011924, 0.0073359, 0.21947, 1.4174887, -0.2796719, -0.1269594], [0.0195326, 0.0967879, -0.0545897, -0.2654983, -0.0051287, 0.024235], [-0.1868193, 0.0903784, -0.3720438, -1.5392662, 0.6262736, 0.0990004], [0.0071377, -0.040867, -0.0459315, -0.384108, 0.0330487, 0.1036758], [-0.0135035, -0.0318021, -0.055519, -0.0653712, 0.0433047, 0.0574764], [-0.0097554, -0.1051676, -0.0389819, -0.9551012, -0.0349263, 0.0441876], [-0.00702, -0.0489715, 0.0064336, -0.0299035, -0.0011193, -0.0481885], [-0.0807763, -0.0485027, 0.0159601, -0.5753857, 0.4322103, 0.0644498], [0.0486746, -0.0820157, -0.0646513, 2.2117146, -0.0317126, -0.0201628], [0.0550637, -0.118677, 0.0661203, -0.6099889, 0.0592384, 0.9935304], [0.7288564, -1.6404572, -0.0309883, -1.2867031, -3.0503695, 1.4506838], [-0.0167709, -0.0012784, 0.0224216, 0.3790677, 0.0299178, -0.0260268], [0.259472, 0.3069836, -0.7243418, -0.2512601, 1.0609979, 0.185486], [-0.2673471, -0.0439373, 0.248266, -0.8418106, 0.5941717, -0.0261971], [-0.9398348, -0.523293, -0.6426616, -2.968886, 4.4404556, 0.6093813], [-0.0233654, 0.2104756, 0.2014472, 0.2485295, -0.0096147, 0.3500825], [0.1486523, -0.271763, -0.7438704, 3.5691882, -0.5518997, -0.2693384], [0.0072431, -0.1043364, 0.0017001, -0.1582403, 0.0238682, 0.0968208], [-0.0543993, -0.3696241, 0.0234572, 1.1527858, -0.1901181, 2.2922322], [0.0750677, -0.0185429, -0.0149788, 5.16969, 0.0532069, -0.0642728], [-0.008355, -0.1257857, -0.0060253, -0.3313327, 0.0438991, 0.2417144], [-1.087746, 0.9668833, 0.8264332, 5.1204355, 2.3368263, -1.0589145], [-0.0612579, -0.1538874, -0.1372355, 1.2956846, 0.1529642, 0.1731764], [-0.0199425, 0.0042713, 0.0179873, -0.0564686, 0.041861, -0.0036083], [0.5545431, 0.3668237, 0.2300263, 0.8902893, -2.305392, -0.1959272], [0.0090804, -0.0176595, 0.0284105, 0.1853145, -0.0465037, 0.654696], [0.0412579, -0.033421, -0.2338409, -1.4158858, -0.0238794, 0.0286163], [0.0087014, -0.0483343, 0.017673, -1.8722112, -0.0404151, 0.0668742], [-0.0168806, -0.0188557, -0.0444572, 0.3379179, -0.0135545, -0.0084872], [0.0426395, 0.0614824, -0.0156732, -0.0546979, 0.0293876, 0.0531897], [-0.0148904, 0.0381423, -0.0486583, -0.0762795, 0.0393053, -0.8616918], [0.0351641, 0.0694712, -0.084731, -0.3712139, 0.0521996, -0.1920944], [0.0100244, 0.0267729, 0.0100676, 0.0552886, 0.0012602, -0.0096209], [0.019983, 0.0340316, 0.0204661, 0.5602264, 0.0309655, -0.0440464], [0.0196525, 0.1884232, -0.0046215, -0.2712646, 0.0839321, -1.2261508], [-0.2208176, -0.1945678, 0.207219, 0.032789, -0.6946233, -0.141873], [-0.0048234, 0.0130502, 0.0212542, 0.2249242, -0.0043831, 0.0165114], [0.0552116, 0.3420639, 0.0011295, -1.0987688, 0.1588315, -1.8899654], [-0.9312826, -0.448292, -0.0891422, -5.9458577, 3.7327035, 0.5791419], [-0.016202, 0.0513666, 0.0113495, 1.1988514, 0.029663, -0.0056133], [-0.0341465, 0.0814982, -0.0957894, 1.0898967, -0.0654119, -0.072775], [0.0314983, 0.0339456, 0.0991187, -0.2748295, -0.5009115, 0.003028], [-0.3198284, 1.0547499, -0.2687281, -0.4937047, 1.8295058, -0.8504548], [0.0199828, -0.0644524, 0.0166586, -0.4216581, -0.0471964, 0.0130473], [0.0727817, -0.030098, -0.1489431, -0.453552, 0.3146398, -0.076421], [0.0242874, -0.0259172, 0.0169944, -0.3669179, 0.0411437, 0.0600837], [0.0143805, -0.0251605, 0.0115058, 0.0414878, -0.0058783, -0.1666111], [0.1512676, 0.1007016, -0.0657808, 0.2636879, -0.373864, -0.0987987], [-0.141842, -0.9600429, -0.4716183, 6.9888355, -0.0308458, 0.7947882], [0.0442265, -0.0021308, -0.0048178, -0.2081188, 0.0412899, 0.0255902], [-0.0522988, -0.0209121, -0.0415292, -0.0571257, -0.0273301, 0.039697], [0.0323915, 0.1241214, 0.0292337, -0.3239441, 0.0405526, -0.3508964], [0.0095411, -0.0251715, -0.085093, -0.5357788, 0.0487521, 0.0218636], [0.180098, 0.1345798, 0.2938223, 0.8517556, -0.9158603, -0.1120033], [-0.0318748, -0.088297, 0.1086794, 0.9519729, -0.0038241, -0.0476537], [-0.2134196, -0.143554, -0.1764417, -0.9320884, -0.3826395, 0.1324436], [0.72144, -0.3607321, -0.6222823, -3.6926974, -1.1909066, 0.4594753], [0.170772, 0.0588996, -0.0817035, 1.0370844, -0.8417548, 0.0574723], [1.4603932, 0.7718083, 1.4723528, 5.1859967, -6.5979353, -1.0636073], [0.0610962, -0.0262922, 0.0129883, -0.1051787, 0.0195668, 0.0134024], [-0.0108419, -0.0472108, -0.0521715, -0.3848611, -0.0306211, 0.0293581], [0.001475, 0.0979763, 0.0235926, 0.228805, -0.0699657, -0.2249112], [-0.0070814, 0.0012438, -0.0182659, 0.2835529, -0.0676245, -0.0216379]], "centers": [[3.7662019, -0.6473836, -0.0757587, 0.0508984, 0.1871866, 0.9810048, -1.0828637, 0.2283106, -0.6449734, 0.221, -0.262, 0.609737, 0.0054045], [4.6374398, 0.0121759, 0.3304786, -0.2303114, -0.032281, 0.9725814, -0.1058493, -0.2104929, 0.0725907, 0.251, 0.2718274, 0.0274202, 0.0144681], [4.468572, 0.2592194, 0.3777024, 0.081564, 0.0894861, 0.9926427, 0.2410231, -0.3538378, 0.0212073, 0.711, 0.0442679, -0.0136404, 0.0118075], [4.0264243, 0.2440849, 0.0518427, -0.197099, -0.3033315, 0.9322778, -0.2748095, 0.434446, -0.3943646, 0.235, -0.0848459, -0.0573984, -0.236], [4.68512, 0.2931564, 0.4929553, -0.1208504, -0.0630277, 0.9906678, 0.1393795, -0.2009065, 0.0806086, 0.707, 0.0442679, -0.0136404, 0.0118075], [3.8345903, -0.3322119, 0.1063742, -0.135444, 0.0514552, 0.989448, -0.3719559, 0.4949639, -0.1589568, 0.251, -0.4281726, 0.0274202, 0.0144681], [4.6020443, 0.3276744, 0.4641064, 0.0252356, 0.0567746, 0.998068, 0.2018757, -0.3880162, -0.0257985, 0.711, 0.0442679, -0.0136404, 0.0118075], [3.9941487, 0.437581, 0.0069123, 0.0342042, 0.4750297, 0.8793048, 0.9545273, 0.0954259, 0.0322992, 0.235, -0.0848459, -0.0573984, 0.138], [6.0462687, 0.4556169, 1.0544904, -0.1964725, 0.073572, 0.9777452, 0.3268248, -0.3570623, 0.0360299, 0.182, 0.12, -0.1330684, 0.0293137], [5.9937453, 0.5045155, 1.2483274, -0.3109356, -0.0425779, 0.9494768, 0.3907479, -0.3802898, 0.149974, 0.182, 0.164, -0.1330684, 0.0293137], [4.5794125, -0.0479468, 0.3440811, 0.099676, 0.1738946, 0.9797068, 0.2438224, -0.2768298, -0.1143823, 0.251, 0.1358274, 0.0274202, 0.0144681], [3.9018527, -0.2399484, 0.2661458, 0.1320635, 0.2140691, 0.96785, 0.0525075, -0.0207293, -0.093454, 0.251, -0.3781726, 0.0274202, 0.0144681], [4.4358431, 0.5810991, 0.053967, -0.1390851, -0.0006712, 0.9902802, 0.9609003, -0.0644316, 0.4402064, 0.221, -0.204, -0.572263, 0.0054045], [4.7964308, -0.2490187, 0.4428744, -0.058852, -0.1226893, 0.9906986, 0.007117, -0.2546753, -0.4943735, 0.218, -0.0848459, -0.0573984, -0.752], [4.0790657, -0.1810423, 0.2114455, -0.2188475, -0.0110606, 0.9756964, -0.1698659, 0.3762854, -0.0541895, 0.251, -0.3061726, 0.0274202, 0.0144681], [4.4847858, 0.2276535, 0.2575123, -0.1045729, -0.1302666, 0.9859488, -0.4552154, 0.0257048, 0.7445541, 0.3, -0.0848459, -0.0573984, 0.374], [3.7980202, 0.6842175, -0.2976371, 0.1384067, 0.0803525, 0.9871105, 1.8542644, 0.3733091, 0.861168, 0.195, -0.2, -0.708263, 0.0054045], [4.2158106, 0.1333161, 0.2294574, -0.0420281, -0.0134123, 0.9990264, -0.0212154, -0.1800181, 0.0799741, 0.6652197, 0.4862033, 0.01109, 0.0257717], [4.0817052, 0.2032851, 0.0143717, 0.0682377, -0.0310974, 0.9971843, -0.0024319, -0.3440443, 0.0923152, 0.6652197, 0.6782033, -0.00691, 0.0257717], [4.5706678, 0.2395242, 0.4482385, -0.142681, -0.0577224, 0.9880841, -0.1163377, -0.1171831, 0.1242949, 0.7, 0.0442679, -0.0136404, 0.0118075], [4.985666, 0.1766735, 0.5309621, -0.0989304, 0.073499, 0.9923763, 0.205566, -0.3876139, 0.0490659, 0.251, 0.1898274, 0.0274202, 0.0144681], [3.717052, 0.159787, -0.1473585, 0.1466781, 0.0497961, 0.9879301, 0.5735232, -0.1507948, 0.1312486, 0.6652197, 0.7162033, -0.02691, 0.0257717], [4.4667863, 0.258749, 0.2516923, -0.1024713, -0.1235357, 0.9870352, -0.3973798, 0.025728, 0.7186976, 0.3, -0.0848459, -0.0573984, 0.374], [4.4497916, 0.9422925, 0.3299933, 0.0602055, -0.2276382, 0.9718828, -1.1912136, -0.2964356, -0.5868165, 0.195, -0.2, 0.761737, 0.0054045], [5.88821, 0.5113178, 1.2530659, -0.3269298, -0.0618983, 0.9430193, 0.3841629, -0.3824871, 0.1924514, 0.182, -0.192, -0.1330684, 0.0293137], [4.7024935, -0.7231754, 0.480319, -0.08726, 0.0421529, 0.9952933, -0.8893801, 0.1084101, -0.5704537, 0.3, -0.10331, 0.5212977, -0.0648556], [4.2233776, 0.1410476, 0.2096434, -0.0339194, -0.0141996, 0.9993237, -0.0226526, -0.2396064, 0.0945381, 0.6652197, 0.4862033, 0.01109, 0.0257717], [4.5411006, 0.0815471, 0.2907401, -0.1180634, -0.1713421, 0.9781119, -0.6116706, 0.0050619, 0.8464173, 0.3, -0.0848459, -0.0573984, 0.334], [4.7187761, 0.3201397, 0.5058285, -0.1042066, -0.0426566, 0.9936405, 0.3720431, -0.2422776, 0.0961418, 0.707, 0.0442679, -0.0136404, 0.0118075], [3.9501131, -0.9852274, 0.3512663, 0.0269343, 0.6740433, 0.7382006, -0.3510656, -0.1668679, -0.0298349, 0.299, -0.0848459, -0.0573984, 0.572], [4.086235, 0.7895656, 0.0758221, 0.0271189, 0.4936781, 0.8692218, 1.2773591, 0.0268616, -0.2469207, 0.288, -0.0848459, -0.0573984, -0.146], [3.9297811, 0.1942021, 0.0336366, -0.0851126, -0.1040387, 0.9909247, -0.7705131, 0.5599986, -0.5006109, 0.221, -0.274, 0.121737, 0.0054045], [3.5596044, -0.4402152, 0.0800347, -0.0337345, 0.1348807, 0.9902874, -0.2960788, 0.3897939, -0.1950118, 0.251, -0.4281726, 0.0274202, 0.0144681], [4.5115797, 0.9243365, 0.1993241, 0.0378566, 0.0090611, 0.9992421, 1.1348168, -0.354027, -0.8618396, 0.24, -0.0848459, -0.0573984, -0.506], [4.6796561, 0.289303, 0.4908106, -0.1227497, -0.0637159, 0.9903902, 0.106888, -0.1946913, 0.0821115, 0.707, 0.0442679, -0.0136404, 0.0118075], [3.7742964, -0.8310388, 0.031069, 0.0747089, 0.2799285, 0.9571095, -0.7458168, 0.033225, -0.422107, 0.221, -0.266, 0.605737, 0.0054045], [4.6903496, 0.2969336, 0.4937153, -0.1186341, -0.0622649, 0.9909839, 0.1718115, -0.2068792, 0.080788, 0.707, 0.0442679, -0.0136404, 0.0118075], [3.6965088, -1.4192596, 0.1102614, 0.0547167, 0.44167, 0.8955075, -1.2482578, 0.1803425, 0.3486673, 0.235, -0.0848459, -0.0573984, 0.472], [4.1566035, 1.0727949, -0.0227403, 0.055397, 0.2850305, 0.9569163, 1.2796711, 0.0406754, -0.2993313, 0.24, -0.0848459, -0.0573984, -0.176], [3.7974583, -0.8437345, 0.0977527, 0.0835575, 0.317145, 0.9446889, -0.4334811, 0.0819508, -0.1818591, 0.221, -0.278, 0.545737, 0.0054045], [3.9847002, 0.3790675, 0.1489388, 0.0124798, 0.584192, 0.8115195, 1.0667557, 0.0419204, -0.1496602, 0.288, -0.0848459, -0.0573984, 0.028], [4.9503721, 0.1213768, 0.4935645, -0.0529121, 0.0937197, 0.9941916, 0.2077427, -0.5585578, 0.0524322, 0.251, 0.2558274, 0.0274202, 0.0144681], [4.4667627, 0.4058059, 0.041989, -0.1324852, 0.0725618, 0.9885254, 1.0289621, -0.0539731, 0.5578465, 0.221, -0.204, -0.596263, 0.0054045], [4.8061757, -0.3423728, 0.448603, -0.064975, -0.1207118, 0.9905589, -0.0707132, -0.2513588, -0.4342743, 0.218, -0.0848459, -0.0573984, -0.752], [4.0003046, 0.5192189, 0.0921892, -0.1283071, -0.151214, 0.9801386, 0.0737006, 0.1745749, -0.0803581, 0.221, -0.208, -0.092263, 0.0054045], [4.8133348, -0.5021017, 0.5919454, -0.0852491, -0.001213, 0.9963589, -0.0025677, -0.03536, 0.0817939, 0.3, -0.10131, -0.5867023, -0.0648556], [6.0490957, 0.4854921, 1.0945361, -0.2180486, 0.054422, 0.9744193, 0.3096036, -0.3710778, 0.0078445, 0.182, 0.15, -0.1330684, 0.0293137], [4.7143077, 0.3228299, 0.5453252, -0.0390559, 0.0252046, 0.9989191, 0.0959121, -0.2213077, 0.0254108, 0.709, 0.0442679, -0.0136404, 0.0118075], [4.1327678, 0.1698647, 0.0739538, 0.0294419, -0.0242593, 0.9992721, -0.057865, -0.3220429, 0.1312092, 0.6652197, 0.6622033, 0.01109, 0.0257717], [4.5587525, 0.0039484, 0.3036051, -0.1247847, -0.1967118, 0.9724882, -0.6320435, -0.0296364, 0.8562336, 0.3, -0.0848459, -0.0573984, 0.334], [4.4573466, 0.2736961, 0.2484955, -0.101465, -0.1207087, 0.9874889, -0.3664871, 0.0248473, 0.7063616, 0.3, -0.0848459, -0.0573984, 0.374], [3.9491479, -0.2051994, 0.2602393, 0.0082988, 0.6598651, 0.7513383, 0.580452, -0.077113, 0.0163376, 0.288, -0.0848459, -0.0573984, 0.288], [4.767348, 1.0461512, 0.4543293, -0.0814956, -0.2655525, 0.9606458, 0.799217, -0.321299, -0.4100483, 0.279, -0.0848459, -0.0573984, -0.916], [4.4011103, 0.6311196, 0.0620299, -0.1408277, -0.030597, 0.9895612, 0.902477, -0.0563371, 0.3732026, 0.221, -0.204, -0.572263, 0.0054045], [3.758108, -1.1429706, 0.1852022, 0.0502528, 0.5094356, 0.8590402, -0.9013347, 0.1601619, 0.4866274, 0.235, -0.0848459, -0.0573984, 0.544], [4.0329802, 0.5800299, 0.0854748, -0.1333022, -0.1454049, 0.9803509, 0.2380302, 0.1084563, -0.0016994, 0.221, -0.208, -0.092263, 0.0054045], [4.4844873, 0.214445, 0.4091074, -0.1487994, -0.0505398, 0.987575, -0.0636654, -0.0263377, 0.1291591, 0.7, 0.0442679, -0.0136404, 0.0118075], [4.2130698, -0.1081277, 0.3259509, 0.1196034, 0.1983332, 0.9728098, 0.1625254, -0.1556267, -0.0943813, 0.251, -0.1161726, 0.0274202, 0.0144681], [4.1090726, 0.1840225, 0.0449778, 0.0483297, -0.0277852, 0.9984449, -0.0542914, -0.3298907, 0.1160008, 0.6652197, 0.6782033, -0.00691, 0.0257717], [4.5217714, 1.6520112, 0.1037895, 0.0080757, -0.0084639, 0.9999316, 1.2742427, -0.2294431, -0.3680298, 0.279, -0.0848459, -0.0573984, -0.826], [3.9162258, 0.1239533, 0.0108789, -0.0738489, -0.0851922, 0.993624, -0.9034038, 0.6021015, -0.5641064, 0.221, -0.274, 0.121737, 0.0054045], [4.506324, 0.7728842, 0.3684143, 0.0402072, -0.1673168, 0.985083, -1.3006986, -0.2843885, -0.5882057, 0.195, -0.2, 0.875737, 0.0054045], [4.0617475, -0.1518339, 0.0276197, 0.1183869, 0.2280154, 0.9664334, 1.0695147, 0.2833504, 0.782541, 0.221, -0.204, -0.506263, 0.0054045], [4.1521783, 0.6074887, 0.1090282, -0.2173249, -0.3108744, 0.9252713, 0.2402703, 0.257449, -0.1039003, 0.234, -0.0848459, -0.0573984, 0.074], [4.4306892, 1.6394831, 0.0543359, 0.0185281, 0.0553602, 0.9982945, 1.2946719, -0.1943574, -0.3021307, 0.279, -0.0848459, -0.0573984, -0.826], [3.7592101, -0.667015, -0.143863, -0.1070372, -0.1509051, 0.9827363, -1.1817536, 0.6918977, -0.442838, 0.235, -0.0848459, -0.0573984, -0.71], [4.7495307, -0.3969061, 0.4581332, -0.0939088, -0.0596205, 0.993794, -0.7896757, 0.0326501, -0.5457381, 0.3, -0.10331, 0.2392977, -0.0648556], [4.8452903, -0.1840209, 0.4819286, -0.0920084, -0.1151732, 0.9890751, -0.4642916, 0.0460027, -0.3785727, 0.3, -0.10331, -0.5647023, -0.0648556], [4.7253111, 1.3044363, 0.3631256, -0.0506788, -0.206432, 0.9771476, 1.0260075, -0.3498287, -0.4704664, 0.279, -0.0848459, -0.0573984, -0.916], [6.1145994, 0.5095528, 1.1922733, -0.2680311, 0.0082139, 0.9633753, 0.4019539, -0.3782077, 0.0300299, 0.182, 0.164, -0.1330684, 0.0293137], [4.8065541, 0.5391868, 0.501242, -0.1219773, -0.3219611, 0.9388624, 0.2733652, -0.2213438, -0.1963168, 0.279, -0.0848459, -0.0573984, -0.922], [4.7822786, 0.9223129, 0.4797898, -0.0936899, -0.2848459, 0.9539837, 0.6777008, -0.2950464, -0.3700746, 0.279, -0.0848459, -0.0573984, -0.916], [4.9890963, 0.1812514, 0.5313067, -0.1024901, 0.0712888, 0.9921762, 0.2087083, -0.3724638, 0.0484458, 0.251, 0.1898274, 0.0274202, 0.0144681], [4.7139336, -0.0497141, 0.4708967, -0.087531, -0.0733723, 0.993456, 1.1634285, -0.1812303, 0.5347412, 0.3, -0.06931, -0.6467023, -0.0648556], [3.8683498, 1.136401, -0.2864499, 0.154807, -0.0718186, 0.9853308, 1.5876627, -0.0207918, 0.9415287, 0.195, -0.2, -0.678263, 0.0054045], [5.7505904, 0.4127882, 1.0046407, -0.2010303, -0.0905554, 0.9753904, -0.054034, 0.2138197, 0.0207006, 0.182, -0.794, -0.0150684, 0.0293137], [3.9940733, 0.5019562, 0.092805, -0.126578, -0.1515912, 0.9803051, 0.0240733, 0.1980357, -0.105449, 0.221, -0.208, -0.092263, 0.0054045], [4.6404396, -0.5151708, 0.378936, -0.1110492, 0.298375, 0.9479665, 0.1048883, 0.0165025, 0.0292694, 0.221, -0.204, -0.024263, 0.0054045], [4.7284363, 0.3229675, 0.5355571, -0.0452869, 0.0218752, 0.9987345, 0.1143759, -0.2325321, 0.0489438, 0.709, 0.0442679, -0.0136404, 0.0118075], [4.6909059, -0.5957604, 0.4882273, -0.0650923, 0.0679438, 0.9955635, 0.7894582, -0.1268212, 0.3848086, 0.3, -0.10131, -0.0307023, -0.0648556], [4.1396217, 1.1639628, 0.043877, 0.0361422, 0.3602425, 0.9321583, 1.3296731, -0.0803042, -0.2937828, 0.288, -0.0848459, -0.0573984, -0.392], [3.8736535, -0.3094615, 0.1221691, -0.1503385, 0.0408406, 0.9877907, -0.3651069, 0.4800556, -0.143745, 0.251, -0.4281726, 0.0274202, 0.0144681], [4.5911406, 0.2446738, 0.4558153, -0.140275, -0.0598816, 0.9883001, -0.1141924, -0.1336, 0.1150932, 0.707, 0.0442679, -0.0136404, 0.0118075], [4.4062549, -0.0622162, 0.3135603, -0.2574649, -0.0199662, 0.9660814, -0.0181839, 0.0230436, 0.0610505, 0.251, 0.1158274, 0.0274202, 0.0144681], [4.2566482, -0.101532, 0.3298859, 0.1181659, 0.1964219, 0.9733731, 0.1736896, -0.1620125, -0.0990058, 0.251, 0.1358274, 0.0274202, 0.0144681], [4.7069915, 0.0066487, 0.4288296, -0.1457989, -0.3036447, 0.9415639, -0.4279454, -0.1519386, 0.4249052, 0.28, -0.0848459, -0.0573984, -0.794], [3.6150627, -1.4181647, -0.1689152, -0.0061166, 0.1131734, 0.9935564, -1.448135, 0.4356149, -0.2155557, 0.235, -0.0848459, -0.0573984, -0.232], [3.816695, 0.2054355, -0.097522, 0.1296417, 0.00909, 0.9915192, 0.4769874, -0.2604377, 0.11348, 0.6652197, 0.7162033, -0.02691, 0.0257717], [3.7645372, -0.7522968, -0.034852, 0.0647683, 0.2340138, 0.9700735, -0.9433291, 0.0987943, -0.5650954, 0.221, -0.266, 0.605737, 0.0054045], [3.5656485, -0.4516003, 0.0994734, -0.0136949, 0.1484033, 0.9888321, -0.2297513, 0.4004298, -0.217283, 0.251, -0.4121726, 0.0274202, 0.0144681], [4.0695319, 0.6155167, 0.0800543, -0.1358645, -0.1378421, 0.9810914, 0.3457819, 0.0733991, 0.04984, 0.221, -0.208, -0.092263, 0.0054045], [4.6883029, 0.326082, 0.5523849, -0.0286483, 0.029992, 0.9991395, 0.1051788, -0.2357554, -0.0083449, 0.711, 0.0442679, -0.0136404, 0.0118075], [4.105634, 0.1871635, 0.0399563, 0.0516115, -0.0285312, 0.9982596, -0.0506285, -0.3302505, 0.1114073, 0.6652197, 0.6782033, -0.00691, 0.0257717], [4.80126, -0.1435497, 0.4432161, -0.0810989, -0.0193183, 0.9965188, 1.4634601, -0.2102682, 0.7429601, 0.3, -0.06931, -0.6467023, -0.0648556], [3.9564131, -0.4820455, 0.0914931, 0.1099453, 0.2990829, 0.9478721, 0.6499389, 0.284623, 0.5057561, 0.221, -0.278, -0.032263, 0.0054045], [4.0330014, 0.6927803, -0.0213185, 0.039832, 0.4186014, 0.9072961, 1.0879112, 0.0867795, -0.0669994, 0.235, -0.0848459, -0.0573984, 0.138]], "length_scale": [0.5817998, 0.73417, 0.3287056, 0.1190481, 0.2290569, 0.0509525, 0.7557476, 0.2823392, 0.4099002, 0.16338, 0.2517305, 0.2892113, 0.2941396]}, "6DOF-EquationError-LS": {"kind": "derivative", "degree": 1, "weights": [[0.2674879, 0.164665, 0.8039622, -0.7416296, 2.1617748, -1.203336], [-0.6502982, -0.779315, -0.1640025, -0.5480084, -0.17227, 1.1309448], [-0.9091303, -0.2365106, -0.6201796, 0.3109521, -1.6974524, 0.4816759], [-1.0042559, -0.0912478, -0.1881698, 0.2057788, 0.9837242, -0.4263516], [-0.5921603, -1.9042455, -0.0145117, -3.0923775, 0.1795464, -0.6705693], [-0.2769412, -0.0202935, -0.3105435, -0.2912789, 0.0619664, 0.1768735], [0.4500933, -0.1665051, 0.1772225, 0.4140993, -0.1339243, 0.3414162], [-0.1943338, -0.0578863, 0.526551, -0.4172858, 0.3239852, -0.1209281], [-0.1257682, -1.5754304, 0.098726, -2.2359353, -0.0894598, -1.2692171], [0.2338233, 0.0184755, 0.2844793, -0.1972968, 0.2611956, -0.2286993], [-0.4012033, 0.0268723, -0.0961368, 0.0764235, -0.318628, 0.1236086], [0.1131232, 0.0259077, 0.1977397, -2.1205264, -0.0202471, -1.0709205], [0.3049674, -0.2324743, 0.0062693, 0.5503352, 0.0877409, 1.4299723], [0.0, 0.0, 0.0, 0.0, 0.0, 0.0]], "mean": [4.3918983, 0.0891193, 0.280645, -0.0359065, 0.0612706, 0.9621439, 0.1385241, -0.0241862, 0.0184612, 0.310242, -0.0643129, -0.0674368, -0.0541736, 1.0], "scale": [0.5817998, 0.73417, 0.3287056, 0.1190481, 0.2290569, 0.0509525, 0.7557476, 0.2823392, 0.4099002, 0.16338, 0.2517305, 0.2892113, 0.2941396, 1.0]}, "6DOF-SINDy": {"kind": "derivative", "degree": 2, "weights": [[0.0, 0.0, 0.0, 0.0, 0.0, 0.0], [-0.0051018, -0.8176299, 1.3376965, 11.8681978, 0.3262191, -0.4218251], [-0.7761533, -0.9090752, 0.0005399, 4.2203217, -0.2946186, 1.2303706], [-2.0266764, -1.0541781, 2.3879921, -6.9715275, -1.9685458, 4.0788628], [-0.2368153, -0.1382265, -0.0743639, 0.1176003, 5.7710057, 0.1431525], [-1.8868578, -2.0103349, -1.3424301, -2.776773, -0.0230334, -0.828702], [-0.2544515, -0.0688401, -0.3850009, 3.8784673, 2.3998004, -0.0817318], [1.6563574, -0.4058649, 0.081575, -3.8571009, -1.5620977, -3.454457], [-0.4416539, -0.1892362, -0.78383, -0.5633333, -0.6294223, 0.202456], [-0.1214022, 1.109052, 0.1056169, -2.30645, -0.0467093, -5.1090029], [0.3274042, -0.8218244, 0.2060263, -0.126872, 13.3986537, -0.3787606], [-4.3189572, -0.0254979, 0.1215669, 0.0126149, -0.4863146, 10.598321], [0.1418133, 0.0614455, 1.5880672, -2.2549668, 0.1544467, -0.9739522], [0.2661034, -0.2040303, 0.0095382, 0.5186825, 0.094745, -0.0146338], [0.0, 0.750223, -0.0862736, 0.0014735, 5.2140326, 0.0], [0.0, 0.0, 0.0, 0.0, 0.0, 0.0], [1.113168, 0.7900654, -2.3123722, 0.0, 0.0, -3.9152895], [-0.9678076, 0.0, 0.0, 0.0, 0.0, 0.0], [1.1958406, 0.0, 0.0, 0.0, 0.0, 0.0], [-0.0496928, 0.0, 0.0, -14.0073599, -3.7119187, 0.0], [0.0, 0.0, 0.0, -2.5514485, 0.0, 3.9946134], [0.0, 0.0, 0.0, 0.0, 0.7078397, 0.3952772], [0.0, -0.3269081, 0.0, 0.0, 0.0, 3.8583026], [0.0, 0.8852079, 0.0, 0.0, 0.0, 0.0], [0.0, 0.0, 0.0, 0.0, 0.0, 0.0], [0.0, 0.0, 0.0, 0.0, 0.0, 0.0], [0.0, 0.0, 0.0, 0.0, 0.0, 0.0], [0.0, 0.0, 0.0, 0.0, 0.0, 0.0], [0.0, 0.0, 0.0, 0.0, 0.0, 0.0], [0.0, 0.0, 0.0, 0.0, 0.0, 0.0], [0.0, 0.0, 0.0, 0.0, 0.0, 0.0], [0.0, 0.0, 0.0, -4.6087845, 0.0, 0.0], [0.0, 0.0, 0.0, 0.0, 0.0, 0.0], [0.0, 0.0, 0.0, 0.0, 0.0, 0.0], [0.0, 0.0, 0.0, 0.0, 0.0, 0.0], [0.0, 0.0, 0.0, 0.0, 0.0, 0.0], [0.0, 0.0, 0.0, 0.0, 0.0, 0.0], [0.0, 0.0, 0.0, 0.0, 0.0, 0.0], [0.0, 0.0, 0.0, 0.0, 0.0, 0.0], [0.0, 0.0, 0.0, 0.0, 0.0, 0.0], [0.0, 0.0, 0.0, 0.0, 0.0, 0.0], [0.0, 0.0, 0.0, 0.0, 0.0, 0.0], [0.0, 0.0, -0.9336654, 7.0193452, 0.0, 0.0], [0.0, 0.0, 0.0, 0.0, 0.0, 0.0], [0.0, 0.0, 0.0, 0.0, 0.0, 0.0], [0.0, 0.0, 0.0, 0.0, 0.0, 0.0], [0.0, 0.0, 0.0, 0.0, 0.0, 0.0], [0.0, 0.0, 0.0, 0.0, 0.0, 0.0], [0.0, 0.0, 0.0, 0.0, 0.0, 0.0], [0.0, 0.0, 0.0, 0.0, 0.0, 0.0], [0.0, 0.0, 0.0, 0.0, 0.0, 0.0], [0.0, 0.0, 0.0, 0.0, 0.0, 0.0], [0.0, 0.0, 0.0, 0.0, -4.8978933, 0.0], [0.0, 0.0, 0.0, 0.0, 0.0, 0.0], [0.0, 0.0, 0.0, 0.0, 0.0, 0.0], [0.0, 0.0, 0.0, 0.0, 0.0, 0.0], [0.0, 0.0, 0.0, 0.0, 0.0, 0.0], [0.0, 0.0, 0.0, 0.0, 0.0, 0.0], [0.0, 0.0, 0.0, 0.0, 0.0, 0.0], [0.0, 0.0, 0.0, 0.0, 0.0, 0.0], [0.0, 0.0, 0.0, 0.0, 0.0, 0.0], [0.0, 0.0, 1.3839739, 0.0, 0.0, 0.0], [0.0, 0.0, 0.0, 0.0, 0.0, 0.0], [0.0, 0.0, 0.0, 0.0, 0.0, 0.0], [0.0, 0.0, 0.0, 0.0, 0.0, 0.0], [0.0, 0.0, 0.0, 0.0, 0.0, 0.0], [0.0, 0.0, 0.0, 0.0, 0.0, 0.0], [0.0, 0.0, 0.0, 0.0, 0.0, 0.0], [0.0, 0.0, 0.0, 0.0, 0.0, 0.0], [0.0, 0.0, 0.0, 0.0, 0.0, 0.0], [-1.1890131, 0.3289338, 0.0, 6.5909204, 1.6143464, 0.0], [0.0, 0.0, 1.6131947, 0.0, 0.0, 0.0], [0.0, -2.3995094, 0.0, 0.0, 0.0, 0.0], [0.0, 0.0, 0.0, 0.0, -13.3307924, 0.0], [3.7230532, 0.0, 0.0, 0.0, 0.0, -9.691676], [0.0, 0.0, -1.4692827, 0.0, 0.0, 0.0], [0.0, 0.0, 0.0, 0.0, 0.0, 0.0], [0.0, 0.0, 0.0, 0.0, 0.0, 0.0], [0.0, 0.0, 0.0, 0.0, 0.0, 0.0], [0.0, 0.0, 0.0, 0.0, 0.0, 0.0], [0.0, 0.0, 0.0, 0.0, 0.0, 0.0], [0.0, 0.0, 0.0, 0.0, 0.0, 0.0], [0.0, 0.0, 0.0, 0.0, 0.0, 0.0], [0.0, 0.0, 0.0, 0.0, 0.0, 0.0], [0.0, 0.0, 0.0, 0.0, 0.0, 0.0], [0.0, 0.0, 0.0, 0.0, 0.0, 0.0], [0.0, 0.0, 0.0, 0.0, 0.0, 0.0], [0.0, 0.0, 0.0, 0.0, 0.0, 0.0], [0.0, 0.0, 0.0, 0.0, 0.0, 0.0], [0.0, 0.0, 0.0, 0.0, 0.0, 0.0], [0.0, 0.0, 0.0, 0.0, 0.0, 0.0], [0.0, 0.0, 0.0, 0.0, 0.0, 0.0], [0.0, 0.0, 0.0, 0.0, 0.0, 0.0], [0.0, 0.0, 0.0, 0.0, 0.0, 0.0], [0.0, 0.0, 0.0, 0.0, 0.0, 0.0], [0.0, 0.0, 0.0, 0.0, 0.0, 0.0], [0.0, 0.0, 0.0, 0.0, 0.0, 0.0], [0.0, 0.0, 0.0, 0.0, 0.0, 0.0], [0.0, 0.0, 0.0, 0.0, 0.0, 0.0], [0.0, 0.0, 0.0, 0.0, 0.0, 0.0], [0.0, 0.0, 0.0, 0.0, 0.0, 0.0], [0.0, 0.0, 0.0, 0.0, 0.0, -1.5624443], [0.0, 0.0, 0.0, 0.0, 0.0, 0.0], [0.0, 0.0, 0.0, 0.0, 0.0, 0.0], [0.0, 0.0, 0.0, 0.0, 0.0, 0.0]], "mean": [1.0, 4.3918983, 0.0891193, 0.280645, -0.0359065, 0.0612706, 0.9621439, 0.1385241, -0.0241862, 0.0184612, 0.310242, -0.0643129, -0.0674368, -0.0541736, 19.6272613, 0.4942885, 1.4066508, -0.2017567, 0.2285638, 4.2317145, 0.6454638, -0.1783068, 0.0887433, 1.3513516, -0.2789008, -0.3023703, -0.2625512, 0.5469479, 0.0305077, 0.0001297, -0.0804145, 0.0939661, 0.3541486, -0.0659986, 0.0385889, 0.027833, 0.0026385, -0.0605257, -0.0684678, 0.186809, -0.0353927, 0.0050163, 0.2704154, 0.005928, -0.03829, -0.0064185, 0.0831445, -0.0230711, -0.0085497, -0.0136595, 0.0154617, 0.0068898, -0.0351873, 0.0142065, -0.0015244, 0.001599, -0.0087835, 0.0047634, 0.0010378, 0.0047172, 0.0562212, 0.0519669, 0.014911, 0.0051289, -0.0054254, 0.0171593, -0.0066207, 0.0041792, 0.0250117, 0.9283171, 0.1339564, -0.023802, 0.0181418, 0.3002745, -0.0602496, -0.0646141, -0.0577663, 0.5903434, -0.0507212, 0.1313047, 0.0415714, 0.0026154, -0.1400276, -0.0489207, 0.0803004, -0.0012543, -0.0197272, -0.0321461, 0.0019702, 0.0124165, 0.168359, 0.0082662, 0.0048073, -0.0701595, 0.0457499, 0.1229431, 0.006414, -0.0172924, -0.0127862, 0.0675044, 0.0061605, 0.0057433, 0.0881909, 0.0038336, 0.0894529], "scale": [1.0, 0.5817998, 0.73417, 0.3287056, 0.1190481, 0.2290569, 0.0509525, 0.7557476, 0.2823392, 0.4099002, 0.16338, 0.2517305, 0.2892113, 0.2941396, 5.5135422, 3.0983142, 1.8365699, 0.5710346, 0.9453813, 0.6380283, 3.1375093, 1.2560591, 1.7553964, 0.7115172, 1.0694321, 1.2610605, 1.3045597, 0.7886792, 0.2284495, 0.0719369, 0.2178134, 0.6921229, 0.6688237, 0.1730788, 0.3594654, 0.1909858, 0.1221365, 0.2440132, 0.2867366, 0.3494441, 0.083947, 0.0639577, 0.318228, 0.196246, 0.1417001, 0.1075158, 0.1031692, 0.1068266, 0.1052262, 0.096835, 0.021536, 0.0188263, 0.1145374, 0.0710644, 0.0385083, 0.042711, 0.0363214, 0.0331983, 0.0308001, 0.0216448, 0.094026, 0.2027733, 0.1914639, 0.052566, 0.0894332, 0.0611721, 0.037402, 0.0526077, 0.0877727, 0.0914873, 0.7281939, 0.2746983, 0.3977127, 0.1653647, 0.2476022, 0.2833393, 0.2780208, 0.838772, 0.2448968, 0.4629797, 0.1900786, 0.138273, 0.3207992, 0.2516693, 0.1010919, 0.1143351, 0.0891958, 0.0771303, 0.0717321, 0.0896032, 0.2706975, 0.1018006, 0.073685, 0.1788466, 0.1347948, 0.1489174, 0.1221463, 0.0683692, 0.077241, 0.1221077, 0.0552715, 0.0253036, 0.1784744, 0.0193911, 0.2135553]}, "6DOF-Koopman-EDMD": {"kind": "increment", "degree": 2, "weights": [[0.0, 0.0, 0.0, 0.0, 0.0, 0.0], [-0.0498726, 0.0768253, 0.0695596, -0.0159812, 0.0227513, 0.093023], [0.2312516, -0.0323537, -0.0551589, -0.0643538, -0.0334742, -0.0139457], [0.0817587, -0.053572, -0.0080872, 0.3783173, -0.0347904, 0.0816971], [-0.0366013, -0.0184138, 0.0021702, 0.0344997, 0.0896479, 0.0122851], [0.1006644, -0.0370809, -0.022297, -0.0513816, 0.1322186, 0.1097053], [-0.0003033, -0.0123126, -0.029958, 0.1130887, 0.1115685, 0.0744999], [-0.1664348, -0.0033998, 0.0434432, -0.0444492, 0.1919947, 0.2143694], [0.0460131, -0.0230886, 0.0343481, 0.2031427, -0.0563197, 0.1829537], [0.0112599, -0.0090347, -0.0208259, -0.1610738, -0.2147846, 0.111392], [-0.2328883, 0.0245925, -0.0398407, 0.047417, -0.3251355, -0.0236773], [-0.1521756, -0.01524, -0.0019562, -0.0225901, 0.0309285, 0.1545964], [-0.0530054, -0.0203692, 0.0568431, 0.1403639, -0.1292458, 0.0903417], [0.0074058, 0.0275065, 0.0248452, -0.2339979, 0.22023, -0.2037077], [0.1166042, -0.0599905, -0.0837853, -0.2750937, 0.2198992, -0.112638], [-0.1085243, -0.0032022, -0.0037432, 0.3302319, 0.0574123, 0.11597], [0.1578241, 0.0849105, 0.1501917, -0.1070401, 0.1101122, -0.1287712], [0.2217533, -0.0034882, 0.0081739, -0.0405889, 0.0420111, -0.0404775], [-0.1340397, 0.0074062, -0.0488449, 0.2170562, -0.0744961, -0.0096398], [-0.1024042, -0.0253605, 0.0007735, 0.2563594, -0.2292427, 0.0228334], [0.0185976, -0.0279556, -0.0244883, -0.5138832, -0.0147631, -0.1366265], [0.0140533, 0.031901, 0.0447243, -0.3325719, 0.2022919, -0.1881807], [-0.0871144, 0.0385083, 0.0347298, 0.1780622, 0.1498914, -0.1245408], [0.1203969, -0.0296055, 0.0280773, 0.144996, 0.0457491, -0.0037161], [-0.0328777, 0.0134874, 0.0106009, -0.0566932, 0.0084975, 0.038886], [-0.0162063, 0.0137104, -0.001306, 0.0484881, 0.087541, -0.0272873], [0.0133584, -0.0261068, 0.0143798, -0.0725481, -0.1547304, -0.0156496], [9.09e-05, -0.0032306, -0.0007951, 0.0216608, -0.0103365, 0.0207025], [0.0219762, -0.0006021, 8.71e-05, -0.0475595, -9.64e-05, -0.0023682], [0.0178191, -0.0012097, -0.0043891, -0.0396321, 0.0277801, -0.0048379], [-0.0035529, -0.0082602, 0.0025219, 0.0634785, -0.0023559, 0.0297657], [-0.1212061, 0.0147686, 0.0474959, -0.2768767, -0.0510627, -0.0318802], [-0.0076812, 0.00854, -0.0010632, -0.0187922, -0.0088842, -0.0077258], [0.0155215, -9.11e-05, 0.0018987, 0.0028607, -0.0016195, 0.0051076], [0.0198078, -0.0026911, 0.0010644, -0.003384, -0.0096831, 0.0014011], [0.0066928, 0.014792, 0.0065792, -0.0180345, 0.0300727, -0.0745244], [0.0134129, 0.0008598, -0.0044756, -0.0257072, -0.0022471, -0.0069792], [0.0214347, -0.001185, 0.0013789, -0.0198, -0.0003734, -0.017566], [-0.023239, 0.0050999, 0.003088, -0.0119312, 0.0020482, 0.0097586], [-0.0847881, -0.0065261, -0.0356919, 0.0181453, -0.0196095, 0.0049691], [-0.0619452, 0.0117929, -0.0009255, 0.020053, -0.0044113, -0.0051089], [0.0262125, -0.0043362, 0.000222, -0.0409608, 0.0124728, 0.0048733], [-0.1698168, -0.0104586, -0.0935542, -0.2260445, -0.1000867, 0.0274639], [-0.0013062, 0.0003854, -4.76e-05, 0.0585506, -0.0062555, 0.0256087], [0.00542, -0.0065397, -0.0106955, 0.0449018, -0.0242925, 0.0234083], [0.0046347, -0.0005515, -0.0017967, -0.0275889, -0.0122023, -0.0024782], [-0.0167521, 0.0037308, -0.0039052, -0.029369, 0.0006649, 0.002038], [-0.0015073, -0.0040534, 0.0029733, 0.0334204, -0.0002934, 0.0044827], [-0.0082913, 0.0007252, -0.0003878, -0.0293499, -0.0070027, -0.0046231], [-0.0085258, 0.0004712, -0.0006236, 0.0254037, 0.0136481, 0.0166186], [-0.0004977, -0.001287, -0.0021916, 0.0256813, 0.0113713, 0.0070025], [0.0120343, -0.0007151, -0.0055838, -0.0383235, 0.014159, -0.0059041], [-0.158777, 0.01953, -0.0032379, -0.0167899, -0.1101183, 0.011426], [-0.0144298, -0.0024483, -0.0005201, 0.0135809, -0.0083522, 0.0102179], [0.0080726, -0.0003316, -0.0025956, -0.0002986, 0.0096237, -0.0021315], [-0.0027268, 0.0044373, 0.0004684, 0.0017689, -0.0051163, -0.0121348], [0.000478, -0.0023737, -0.0024743, 0.051265, -0.0091645, 0.0215148], [-0.0085949, 0.0006364, 0.0039014, -0.0079922, 0.0043457, -0.001662], [-0.0037401, 0.0004176, -0.0034382, -0.0035356, 0.0005754, 0.0040716], [-0.0022201, -0.0021467, -0.0001044, 0.0004847, 0.0072999, -0.001911], [-0.0192558, -0.0125311, -0.0120555, 0.1120765, 0.0253674, 0.0490722], [0.0315365, 0.0086348, 0.0569663, -0.0940991, -0.075561, -0.0594627], [0.0065299, 0.0079476, 0.0018463, -0.0285629, -0.0239748, -0.0237635], [-0.0020244, 0.0006059, -0.0004742, -0.0166832, -0.0023458, -0.0086213], [0.0072266, -0.0033229, -0.0007247, 4.12e-05, -0.0025443, 0.0133733], [0.0018361, 0.0048552, 0.0055948, -0.1247015, 0.0253793, -0.0564543], [0.0107988, -0.0010144, -0.0067068, 0.0111423, -0.0015766, 0.0052306], [0.0134181, -0.0010285, -0.0009353, -0.0153304, -0.0048456, -0.0090568], [-0.0040834, 0.0046102, 0.0005915, -0.0080155, -0.0105098, 0.0028563], [0.0199073, 0.0131818, 0.012906, -0.1212318, -0.0287482, -0.0520823], [0.1789944, 0.0268798, -0.0186335, 0.5562383, -0.1484147, -0.0742778], [-0.061443, -0.007737, -0.0692605, 0.0943565, -0.138501, 0.0078724], [0.1053492, -0.0512011, -0.0136211, 0.0679256, 0.0303952, 0.019681], [0.1200414, -0.0102451, 0.0059187, -0.306533, 0.3937695, 0.0492278], [0.1586763, 0.0066303, -0.0025871, 0.0379003, -0.0440592, -0.2022304], [0.1132764, -0.0003513, -0.0451892, -0.1354498, 0.048404, -0.0339785], [0.0035286, 0.0135671, -0.0358975, 0.1214946, -0.0062487, 0.0802848], [0.0257067, -0.0065268, -0.0011244, 0.0274737, 0.0059044, 0.0102468], [-0.0131341, -0.0030628, -0.0013701, -0.0051467, -0.0006978, 0.011469], [-0.0113852, 0.0024653, 0.000223, -0.0119083, 0.0047498, -0.0019363], [-0.0300179, 0.0012149, 0.0006412, -0.007713, -0.0136543, 0.0043671], [0.0118211, -0.0025057, -9.94e-05, 0.0031623, 0.0036329, 0.0031638], [-0.0138062, -0.0022303, -5.06e-05, -0.0365032, 0.0230661, 0.0097841], [0.0212906, -0.0040582, -0.0037607, 0.0183818, 0.0028852, -0.0021468], [0.0025104, -0.0001023, -0.0001338, -0.0028685, 0.0059421, -0.0037377], [-0.0013596, 0.0020273, 0.0007596, -0.0017353, 0.0081427, -0.0080626], [-0.0054046, 0.0027946, 0.004339, 0.0171195, 0.0097034, -0.0106343], [0.0058215, -0.0006216, 0.0019882, 0.0035464, -0.0022389, 0.0031042], [-0.001523, 0.0002076, 0.0017119, -0.0069998, 0.0058616, -0.0025022], [0.0025845, -0.0018031, -0.001359, 0.0123813, -0.00201, 0.0033007], [-0.0041036, 0.0009316, -0.0001048, -0.0003989, -0.0030914, 0.0072207], [-0.024523, 0.0075391, 0.00227, -0.0705328, 0.0314958, -0.011949], [-0.0046716, 0.0003379, 0.0005161, 0.0118959, -0.0050454, 0.0079182], [0.0132092, 0.0010058, 0.0027927, 0.0334655, -0.0077806, -0.0043753], [0.0033601, 0.0007238, -0.000561, -0.0040377, 0.0012955, -0.0099141], [0.0055222, 0.0096622, 0.0069018, 0.1478182, -0.1015548, -0.0054972], [-0.0025948, -0.004027, -0.0013565, 0.0475236, -0.0155797, 0.0315374], [-0.0424549, 0.0064369, -0.0059937, -0.0352422, 0.0094888, -0.023118], [0.0198616, -0.0015984, -0.0186455, 0.0554939, -0.0259471, 0.0210953], [0.0078083, -0.0008124, 0.0023644, 0.0073543, 0.0012308, 5.75e-05], [0.0045978, -0.0013433, 0.0052476, 0.0038442, 0.009373, 0.0026442], [0.0758848, 0.0135181, -0.0137227, -0.1174719, 0.0375395, -0.1227924], [0.0035233, -0.0007846, 0.0016799, -0.0024664, 0.0093301, -0.0005668], [-0.0402199, 0.0047427, -0.0010836, -0.0085597, 0.0038106, 0.0024604], [-0.0028151, -0.00126, -0.0001474, 0.0069802, 0.0006502, 0.0094032]], "mean": [1.0, 4.3918983, 0.0891193, 0.280645, -0.0359065, 0.0612706, 0.9621439, 0.1385241, -0.0241862, 0.0184612, 0.310242, -0.0643129, -0.0674368, -0.0541736, 19.6272613, 0.4942885, 1.4066508, -0.2017567, 0.2285638, 4.2317145, 0.6454638, -0.1783068, 0.0887433, 1.3513516, -0.2789008, -0.3023703, -0.2625512, 0.5469479, 0.0305077, 0.0001297, -0.0804145, 0.0939661, 0.3541486, -0.0659986, 0.0385889, 0.027833, 0.0026385, -0.0605257, -0.0684678, 0.186809, -0.0353927, 0.0050163, 0.2704154, 0.005928, -0.03829, -0.0064185, 0.0831445, -0.0230711, -0.0085497, -0.0136595, 0.0154617, 0.0068898, -0.0351873, 0.0142065, -0.0015244, 0.001599, -0.0087835, 0.0047634, 0.0010378, 0.0047172, 0.0562212, 0.0519669, 0.014911, 0.0051289, -0.0054254, 0.0171593, -0.0066207, 0.0041792, 0.0250117, 0.9283171, 0.1339564, -0.023802, 0.0181418, 0.3002745, -0.0602496, -0.0646141, -0.0577663, 0.5903434, -0.0507212, 0.1313047, 0.0415714, 0.0026154, -0.1400276, -0.0489207, 0.0803004, -0.0012543, -0.0197272, -0.0321461, 0.0019702, 0.0124165, 0.168359, 0.0082662, 0.0048073, -0.0701595, 0.0457499, 0.1229431, 0.006414, -0.0172924, -0.0127862, 0.0675044, 0.0061605, 0.0057433, 0.0881909, 0.0038336, 0.0894529], "scale": [1.0, 0.5817998, 0.73417, 0.3287056, 0.1190481, 0.2290569, 0.0509525, 0.7557476, 0.2823392, 0.4099002, 0.16338, 0.2517305, 0.2892113, 0.2941396, 5.5135422, 3.0983142, 1.8365699, 0.5710346, 0.9453813, 0.6380283, 3.1375093, 1.2560591, 1.7553964, 0.7115172, 1.0694321, 1.2610605, 1.3045597, 0.7886792, 0.2284495, 0.0719369, 0.2178134, 0.6921229, 0.6688237, 0.1730788, 0.3594654, 0.1909858, 0.1221365, 0.2440132, 0.2867366, 0.3494441, 0.083947, 0.0639577, 0.318228, 0.196246, 0.1417001, 0.1075158, 0.1031692, 0.1068266, 0.1052262, 0.096835, 0.021536, 0.0188263, 0.1145374, 0.0710644, 0.0385083, 0.042711, 0.0363214, 0.0331983, 0.0308001, 0.0216448, 0.094026, 0.2027733, 0.1914639, 0.052566, 0.0894332, 0.0611721, 0.037402, 0.0526077, 0.0877727, 0.0914873, 0.7281939, 0.2746983, 0.3977127, 0.1653647, 0.2476022, 0.2833393, 0.2780208, 0.838772, 0.2448968, 0.4629797, 0.1900786, 0.138273, 0.3207992, 0.2516693, 0.1010919, 0.1143351, 0.0891958, 0.0771303, 0.0717321, 0.0896032, 0.2706975, 0.1018006, 0.073685, 0.1788466, 0.1347948, 0.1489174, 0.1221463, 0.0683692, 0.077241, 0.1221077, 0.0552715, 0.0253036, 0.1784744, 0.0193911, 0.2135553]}, "6DOF-Symbolic-Stepwise": {"kind": "increment", "degree": 2, "weights": [[0.0, 0.0, 0.0, 0.0, 0.0, 0.0], [-0.0166512, 0.0002006, 0.1839214, 0.0992746, -0.1186405, -0.0611033], [0.0032183, -0.0089124, -0.0029556, 0.0563381, -0.0027863, 0.0229795], [0.0012887, -0.0086816, -0.0278264, -0.0429217, -0.0209921, 0.0674409], [0.0326058, -0.0188068, 0.0008184, 0.002953, 0.0006703, 0.0005463], [-0.0180387, -0.019506, 0.0244348, -0.0144823, 0.030892, -0.0077385], [0.0033052, -0.0047239, 0.0555066, 0.0228525, -0.02922, -0.014202], [0.0032388, -0.0070745, 0.0008149, -0.053618, 0.0014071, 0.0293147], [-0.0042931, 0.0012604, 0.0188388, 0.0151356, -0.0853992, -0.0092701], [-0.0013294, -0.0026575, 0.0006897, -0.0674176, -0.0308586, -0.0428547], [0.0393958, -0.0488244, 0.0022746, -0.0286629, -0.0293159, -0.1554163], [-0.0732151, -0.0006101, -0.0219001, 0.0014889, -0.0038574, 0.1734789], [-0.0556645, 0.0007443, 0.0225935, -0.0234891, -0.0203541, -0.00987], [0.0026357, 0.0030993, 0.0008127, 0.0043492, 0.0169544, -0.0133175], [0.0147779, 0.0012685, -0.0134292, -0.0182544, 0.0599922, 0.0649735], [0.0, 0.0, 0.0, -0.0008816, 0.0, 0.0051719], [0.0, 0.0053615, -0.0008963, 0.0, 0.0, -0.0756757], [-0.0189852, 0.0, 0.0, 0.0, 0.0, 0.0], [0.0111989, 0.0, 0.0, -0.0112076, -0.0300625, 0.0], [0.0, 0.0, -0.1776945, -0.0959615, 0.0935153, 0.0], [0.0, 0.0084261, 0.0, -0.0555383, 0.0, 0.0497986], [0.0, -0.0025616, -0.0073115, -0.0186713, 0.0095227, 0.0138884], [0.0, -0.0095199, 0.0, 0.0435241, 0.0291445, 0.0307798], [0.0121928, 0.0028307, 0.0, 0.0, 0.0, 0.0], [0.0, 0.0, 0.0, 0.0, 0.0, 0.0], [0.0, 0.0, 0.0, 0.0, 0.0215816, 0.0], [0.0, -0.0052856, 0.0, 0.0, -0.0154229, 0.0], [0.0, 0.0, 0.0, 0.0, 0.0, 0.0], [0.0, 0.0, 0.0, 0.0, 0.0, 0.0], [0.0, 0.0, 0.0, 0.0, 0.0, 0.0], [0.0, 0.0, 0.0, 0.0, 0.0, 0.0], [-0.0108596, 0.0, 0.0024623, -0.0565186, 0.0, 0.0], [0.0, 0.0, 0.0, 0.0, 0.0, 0.0], [0.0, 0.0, 0.0, 0.0, 0.0, 0.0], [0.0, 0.0, 0.0, 0.0, 0.0, 0.0], [0.0, 0.0, 0.0, 0.0, 0.0, -0.0178398], [0.0, 0.0, 0.0, 0.0, 0.0, 0.0], [0.0, 0.0, 0.0, 0.0, 0.0, 0.0], [0.0, 0.0, 0.0, 0.0, 0.0, 0.0], [0.0, 0.0, -0.0084339, 0.0, 0.0, 0.0], [0.0, 0.0, 0.0, 0.0, 0.0, 0.0], [0.0, 0.0, 0.0, 0.0, 0.0, 0.0], [-0.0130426, 0.0, 0.027956, 0.0445521, 0.0, 0.0], [0.0, 0.0, 0.0, 0.0, 0.0, 0.0], [0.0, 0.0, 0.0, 0.0, 0.0, 0.0], [0.0, 0.0, 0.0, 0.0, 0.0, 0.0], [0.0, 0.0, 0.0, 0.0, 0.0, 0.0], [0.0, 0.0, 0.0, 0.0, 0.0, 0.0], [0.0, 0.0, 0.0, 0.0, 0.0, 0.0], [0.0, 0.0, 0.0, 0.0, 0.0, 0.0], [0.0, 0.0, 0.0, 0.0, 0.0, 0.0], [0.0, 0.0, 0.0, 0.0, 0.0, 0.0], [-0.0269833, 0.0176207, 0.0, 0.0, 0.0070002, 0.0], [0.0, 0.0, 0.0, 0.0, 0.0, 0.0], [0.0, 0.0, 0.0, 0.0, 0.0, 0.0], [0.0, 0.0, 0.0, 0.0, 0.0, 0.0], [0.0, 0.0, 0.0, 0.0, 0.0, 0.0], [0.0, 0.0, 0.0, 0.0, 0.0, 0.0], [0.0, 0.0, 0.0, 0.0, 0.0, 0.0], [0.0, 0.0, 0.0, 0.0, 0.0, 0.0], [0.0, 0.0, 0.0, 0.0, 0.0, 0.0], [0.0, 0.0, -0.0216312, 0.0, 0.0, 0.0], [0.0, 0.0, 0.0, 0.0, 0.0, 0.0], [0.0, 0.0, 0.0, 0.0, 0.0, 0.0], [0.0, 0.0, 0.0, 0.0, 0.0, 0.0], [0.0, 0.0, 0.0, 0.0, 0.0, 0.0], [0.0, 0.0, 0.0, 0.0, 0.0, 0.0], [0.0, 0.0, 0.0, 0.0, 0.0, 0.0], [0.0, 0.0, 0.0, 0.0, 0.0, 0.0], [0.0, 0.0, 0.0, 0.0, 0.0, 0.0], [0.0018621, -0.00315, 0.0, 0.109436, 0.0003399, -0.0739652], [0.0, 0.0, -0.0026893, 0.0, 0.0764845, 0.0], [0.0, -0.0034798, 0.0, 0.0, 0.0, 0.0], [-0.0498709, 0.0480159, 0.0, 0.0277494, 0.0326049, 0.1594626], [0.0680811, 0.0, 0.0227754, 0.0, 0.0, -0.1630505], [0.057384, 0.0, -0.0218518, 0.0, 0.0, 0.0], [0.0, 0.0, 0.0, 0.0, 0.0, 0.0], [0.0, 0.0, 0.0, 0.0, 0.0, 0.0], [0.0, 0.0, 0.0, 0.0, 0.0, 0.0], [0.0, 0.0, 0.0, 0.0, 0.0, 0.0], [0.0, 0.0, 0.0, 0.0, 0.0, 0.0], [0.0, 0.0, 0.0, 0.0, 0.0, 0.0], [0.0, 0.0, 0.0, 0.0, 0.0, 0.0], [0.0, 0.0, 0.0, 0.0, 0.0, 0.0], [0.0, 0.0, 0.0, 0.0, 0.0, 0.0], [0.0, 0.0, 0.0, 0.0, 0.0, 0.0], [0.0, 0.0, 0.0, 0.0, 0.0, 0.0], [0.0, 0.0, 0.0, 0.0, 0.0, 0.0], [0.0, 0.0, 0.0, 0.0, 0.0, 0.0], [0.0, 0.0, 0.0, 0.0, 0.0, 0.0], [0.0, 0.0, 0.0, 0.0, 0.0, 0.0], [0.0, 0.0, 0.0, 0.0, 0.0, 0.0], [0.0, 0.0, 0.0, 0.0, 0.0, 0.0], [0.0, 0.0, 0.0, 0.0, 0.0, 0.0], [0.0, 0.0, 0.0, 0.0, 0.0, 0.0], [0.0, 0.0, 0.0, 0.0, 0.0, 0.0], [0.0, 0.0, 0.0, 0.0, 0.0, 0.0], [0.0, 0.0, 0.0, 0.0, 0.0, 0.0], [0.0, 0.0, 0.0, 0.0, 0.0, 0.0], [0.0, 0.0, 0.0, 0.0, 0.0, 0.0], [0.0, 0.0, 0.0, 0.0, 0.0, 0.0], [0.0, 0.0, 0.0, 0.0, 0.0, -0.0277488], [0.0, 0.0, 0.0, 0.0, 0.0, 0.0], [0.0, 0.0, 0.0, 0.0, 0.0, 0.0], [0.0, 0.0, 0.0, 0.0, 0.0, 0.0]], "mean": [1.0, 4.3918983, 0.0891193, 0.280645, -0.0359065, 0.0612706, 0.9621439, 0.1385241, -0.0241862, 0.0184612, 0.310242, -0.0643129, -0.0674368, -0.0541736, 19.6272613, 0.4942885, 1.4066508, -0.2017567, 0.2285638, 4.2317145, 0.6454638, -0.1783068, 0.0887433, 1.3513516, -0.2789008, -0.3023703, -0.2625512, 0.5469479, 0.0305077, 0.0001297, -0.0804145, 0.0939661, 0.3541486, -0.0659986, 0.0385889, 0.027833, 0.0026385, -0.0605257, -0.0684678, 0.186809, -0.0353927, 0.0050163, 0.2704154, 0.005928, -0.03829, -0.0064185, 0.0831445, -0.0230711, -0.0085497, -0.0136595, 0.0154617, 0.0068898, -0.0351873, 0.0142065, -0.0015244, 0.001599, -0.0087835, 0.0047634, 0.0010378, 0.0047172, 0.0562212, 0.0519669, 0.014911, 0.0051289, -0.0054254, 0.0171593, -0.0066207, 0.0041792, 0.0250117, 0.9283171, 0.1339564, -0.023802, 0.0181418, 0.3002745, -0.0602496, -0.0646141, -0.0577663, 0.5903434, -0.0507212, 0.1313047, 0.0415714, 0.0026154, -0.1400276, -0.0489207, 0.0803004, -0.0012543, -0.0197272, -0.0321461, 0.0019702, 0.0124165, 0.168359, 0.0082662, 0.0048073, -0.0701595, 0.0457499, 0.1229431, 0.006414, -0.0172924, -0.0127862, 0.0675044, 0.0061605, 0.0057433, 0.0881909, 0.0038336, 0.0894529], "scale": [1.0, 0.5817998, 0.73417, 0.3287056, 0.1190481, 0.2290569, 0.0509525, 0.7557476, 0.2823392, 0.4099002, 0.16338, 0.2517305, 0.2892113, 0.2941396, 5.5135422, 3.0983142, 1.8365699, 0.5710346, 0.9453813, 0.6380283, 3.1375093, 1.2560591, 1.7553964, 0.7115172, 1.0694321, 1.2610605, 1.3045597, 0.7886792, 0.2284495, 0.0719369, 0.2178134, 0.6921229, 0.6688237, 0.1730788, 0.3594654, 0.1909858, 0.1221365, 0.2440132, 0.2867366, 0.3494441, 0.083947, 0.0639577, 0.318228, 0.196246, 0.1417001, 0.1075158, 0.1031692, 0.1068266, 0.1052262, 0.096835, 0.021536, 0.0188263, 0.1145374, 0.0710644, 0.0385083, 0.042711, 0.0363214, 0.0331983, 0.0308001, 0.0216448, 0.094026, 0.2027733, 0.1914639, 0.052566, 0.0894332, 0.0611721, 0.037402, 0.0526077, 0.0877727, 0.0914873, 0.7281939, 0.2746983, 0.3977127, 0.1653647, 0.2476022, 0.2833393, 0.2780208, 0.838772, 0.2448968, 0.4629797, 0.1900786, 0.138273, 0.3207992, 0.2516693, 0.1010919, 0.1143351, 0.0891958, 0.0771303, 0.0717321, 0.0896032, 0.2706975, 0.1018006, 0.073685, 0.1788466, 0.1347948, 0.1489174, 0.1221463, 0.0683692, 0.077241, 0.1221077, 0.0552715, 0.0253036, 0.1784744, 0.0193911, 0.2135553]}, "6DOF-Subspace-Hankel": {"kind": "hankel", "lag": 3, "weights": [[0.9471194, -0.0569206, 0.0767905, 0.0305089, 0.0350569, -0.0147577], [-0.0007757, 0.0126268, 0.119595, 0.0692699, -0.0461197, -0.0380671], [0.1000604, -0.0137667, 0.1021007, 0.0142657, 0.0805352, -0.0251603], [0.0607911, 0.012842, 0.1347757, -0.2171668, 0.108197, -0.2207852], [0.0103623, 0.0204622, -0.0285366, 0.1944342, -0.120521, 0.0885206], [-0.0555901, 0.0726751, -0.04181, 0.0672602, 0.158154, 0.1607515], [0.0054073, -0.0220736, 0.0026463, 0.3398856, -0.0391293, 0.0237902], [0.0011674, -0.0055519, -0.003244, -0.0001167, 0.2346949, -0.0103351], [-0.0016644, 0.006705, -0.0648307, -0.0087096, -0.0689756, 0.3000584], [-2.8621577, 0.1113341, -0.1641734, -0.0276213, -0.0808004, 0.034994], [-0.0023394, -0.9884811, -0.2204935, 0.0152924, 0.0876834, 0.0666585], [-0.2059741, 0.0251685, -1.1362348, -0.1048219, -0.0543455, 0.0522113], [-0.0737034, -0.0547531, -0.3134475, 0.4408135, -0.3374768, 0.3935048], [0.018163, 0.0294295, 0.0557365, -0.1288591, 0.3293274, -0.0271597], [0.0796802, -0.1600837, 0.2568802, -0.302749, -0.1838599, -0.2405755], [-0.0123651, 0.0424786, -0.0056995, -1.6552601, 0.0806297, -0.0511061], [-0.0016962, 0.0126527, -0.0152027, 0.0128743, -1.4493571, 0.0207567], [0.0006885, 0.0328346, 0.1290219, 0.0767674, 0.1437953, -1.5701748], [1.9147898, -0.0545265, 0.088722, -0.0034127, 0.0457953, -0.0201562], [0.0029671, 0.9756968, 0.1004985, -0.0838286, -0.0421885, -0.028264], [0.1058524, -0.011377, 1.0315835, 0.0898378, -0.0279607, -0.0272025], [0.0104307, 0.0415904, 0.1767468, -0.2257845, 0.2259829, -0.172602], [-0.0284475, -0.0517819, -0.0289666, -0.0785669, -0.2096848, -0.0622337], [-0.0247279, 0.0874473, -0.2170711, 0.2426086, 0.0247008, 0.0804928], [0.0074718, -0.0207109, 0.0030939, 1.3151173, -0.0402553, 0.0288273], [-7.86e-05, -0.0069469, 0.0192676, -0.0139221, 1.2133929, -0.0095898], [0.0012623, -0.0404099, -0.0652308, -0.0768863, -0.0748579, 1.267838], [0.0001733, -9.68e-05, 0.0012017, -0.0012657, 0.0004353, -9.8e-06], [-0.0002721, 5.84e-05, -0.0006065, 0.0009128, -0.0015337, 0.0001949], [0.0002539, -0.0001979, -0.0002218, -0.0053033, 0.0003518, -0.0013529], [8.11e-05, -7.72e-05, 0.00035, 0.0009625, 0.000989, 0.0020444], [0.0015283, 0.0005576, -0.0036635, -0.0033012, 0.0008314, -0.0009152]]}}, "greybox": {"parameter_names": ["CL0", "CLa", "CD0", "CDCLS", "CYb", "KT", "KL0", "KLb", "KLp", "KLr", "KLda", "KLdr", "KM0", "KMa", "KMq", "KMe", "KN0", "KNb", "KNp", "KNr", "KNda", "KNdr"], "parameters": [0.477, 4.971802, 0.157639, 0.0, -1.2, 3.00514, 0.175143, -4.129458, -2.024737, -36.418736, -5.196125, 2.610867, 0.060907, -1.026631, -0.0, -0.043957, 0.092225, -2.303662, -0.221258, -22.239268, -3.02098, 2.426216], "cr_std": [0.087039, 1.064968, 0.021691, 0.026415, 0.072375, 0.380515, 0.022744, 0.455869, 0.679756, 4.428268, 0.670493, 0.431046, 0.018687, 0.223534, 2.142571, 0.025027, 0.015265, 0.309107, 0.479933, 3.027783, 0.462593, 0.291321], "couplings": [{"a": "KL0", "b": "KN0", "r": 0.9732590329808539}, {"a": "KLdr", "b": "KNdr", "r": 0.9712939328111965}, {"a": "KLp", "b": "KNp", "r": 0.9705350078178889}, {"a": "KLb", "b": "KNb", "r": 0.9698036338481959}, {"a": "KLr", "b": "KNr", "r": 0.9690620157909867}, {"a": "KLda", "b": "KNda", "r": 0.9686878100579916}, {"a": "KNb", "b": "KNr", "r": 0.9543993482881057}, {"a": "KNr", "b": "KNda", "r": 0.9464373499065697}, {"a": "KLb", "b": "KLr", "r": 0.9460732612023363}, {"a": "KLr", "b": "KLda", "r": 0.9449375470109512}, {"a": "KM0", "b": "KMa", "r": -0.9410422227599755}, {"a": "CL0", "b": "CLa", "r": -0.9293794973821558}, {"a": "KLda", "b": "KNr", "r": 0.9269825767145019}, {"a": "KLb", "b": "KNr", "r": 0.9243462454692654}, {"a": "KLr", "b": "KLdr", "r": -0.9208407709888082}, {"a": "KLr", "b": "KNb", "r": 0.9183989475310294}, {"a": "KNr", "b": "KNdr", "r": -0.9172062808555704}, {"a": "KLr", "b": "KNda", "r": 0.9047654090211475}, {"a": "KNb", "b": "KNdr", "r": -0.9043661235406717}], "uncertainty_note": "Cramer-Rao lower bounds from the output-error Jacobian; residual coloring uncorrected (optimistic).", "fixed_parameters": {"m": 0.063, "S": 0.05553, "b": 0.617, "cbar": 0.09, "rho": 1.225, "g": 9.81, "Ixx": 0.00069, "Iyy": 0.0006, "Izz": 0.00125, "Ixz": 3.5e-05}, "max_deflection_deg": {"elevator": 23.0, "aileron": 25.0, "rudder": 30.0}, "modelica": {"baseline_name": "SportCubGreybox", "baseline_source": "model SportCubGreybox\n  \"6DOF lumped-parameter grey-box; faithful port of greybox.build_casadi_dynamics.\n\n   State order matches STATE_NAMES_EULER:\n     pos[3]   = p_n, p_e, p_d      (NED position)\n     vel[3]   = u, v, w            (body-frame velocity)\n     att[3]   = phi, theta, psi    (Euler angles)\n     rates[3] = p, q, r            (body angular rates)\n   Input order matches CONTROL_NAMES_OEM: aileron, elevator, throttle, rudder.\n\n   Parameter order matches config.full_parameter_vector():\n     10 fixed parameters  (m, S, b, cbar, rho, g, Ixx, Iyy, Izz, Ixz)\n     followed by 25 estimated aero parameters (SPORTCUB_PARAMETER_NAMES).\n   TAUS/TAUM/KB are declared for vector-layout parity but, like the CasADi\n   reference, are not used by the rigid-body dynamics (servo/motor lag lives in\n   the actuator model, not here).\n\n   Control-surface max deflections are `constant` (baked, as in the reference),\n   not estimated parameters, so the parameter vector stays [fixed(10), aero(25)].\n   The psi-wrap post-step in the reference RK4 stays in the Python wrapper.\"\n\n  // ---- fixed parameters ----\n  parameter Real m = 0.063;\n  parameter Real S = 0.05553;\n  parameter Real b = 0.617;\n  parameter Real cbar = 0.09;\n  parameter Real rho = 1.225;\n  parameter Real g = 9.81;\n  parameter Real Ixx = 6.9e-4;\n  parameter Real Iyy = 6.0e-4;\n  parameter Real Izz = 1.25e-3;\n  parameter Real Ixz = 3.5e-5;\n\n  // ---- estimated aero parameters (defaults = bounds.initial) ----\n  parameter Real CL0 = 0.50;\n  parameter Real CLa = 4.00;\n  parameter Real CD0 = 0.08;\n  parameter Real CDCLS = 0.05;\n  parameter Real CYb = -0.30;\n  parameter Real KT = 2.50;\n  parameter Real KL0 = 0.00;\n  parameter Real KLb = -2.00;\n  parameter Real KLp = -50.00;\n  parameter Real KLr = 5.00;\n  parameter Real KLda = 50.00;\n  parameter Real KLdr = 2.00;\n  parameter Real KM0 = 0.00;\n  parameter Real KMa = -2.00;\n  parameter Real KMq = -25.00;\n  parameter Real KMe = -0.40;\n  parameter Real KN0 = 0.00;\n  parameter Real KNb = 3.00;\n  parameter Real KNp = -1.00;\n  parameter Real KNr = -8.00;\n  parameter Real KNda = -1.00;\n  parameter Real KNdr = -10.00;\n  parameter Real TAUS = 0.08;\n  parameter Real TAUM = 0.15;\n  parameter Real KB = -0.0005;\n\n  // ---- baked constants ----\n  constant Real DEG2RAD = 0.017453292519943295;\n  constant Real MAXDEF_ELEV = 23.0;\n  constant Real MAXDEF_AIL = 25.0;\n  constant Real MAXDEF_RUD = 30.0;\n\n  // ---- inputs ----\n  input Real aileron;\n  input Real elevator;\n  input Real throttle;\n  input Real rudder;\n\n  // ---- states ----\n  Real pos[3](start = {0, 0, 0});\n  Real vel[3](start = {16, 0, 0});\n  Real att[3](start = {0, 0, 0});\n  Real rates[3](start = {0, 0, 0});\n\nprotected\n  Real thr, elev_rad, ail_rad, rud_rad;\n  Real speed, speed_safe, alpha, beta, qbar;\n  Real c_a, s_a, c_b, s_b;\n  Real CL, CD, CY, lift, drag, side, thrust;\n  Real fx, fy, fz;\n  Real c_phi, s_phi, c_th, s_th, c_psi, s_psi, c_th_safe, common;\n  Real roll_accel, pitch_accel, yaw_accel;\n  Real r00, r01, r02, r10, r11, r12, r20, r21, r22;\n\nequation\n  // command conditioning\n  thr = max(throttle, 0.0);\n  elev_rad = MAXDEF_ELEV*DEG2RAD*elevator;\n  ail_rad = MAXDEF_AIL*DEG2RAD*aileron;\n  rud_rad = MAXDEF_RUD*DEG2RAD*rudder;\n\n  // airdata\n  speed = sqrt(vel[1]^2 + vel[2]^2 + vel[3]^2 + 1e-9);\n  speed_safe = max(speed, 1e-3);\n  alpha = atan2(vel[3], vel[1]);\n  beta = asin(min(0.99, max(-0.99, vel[2]/speed_safe)));\n  qbar = 0.5*rho*speed_safe^2;\n\n  c_a = cos(alpha);\n  s_a = sin(alpha);\n  c_b = cos(beta);\n  s_b = sin(beta);\n\n  // aerodynamic forces (wind axes) + body-fixed thrust\n  CL = CL0 + CLa*alpha;\n  CD = CD0 + CDCLS*CL^2;\n  CY = CYb*beta;\n  lift = qbar*S*CL;\n  drag = qbar*S*CD;\n  side = qbar*S*CY;\n  thrust = KT*m*thr;\n  fx = -drag*c_a*c_b - side*c_a*s_b + lift*s_a + thrust;\n  fy = -drag*s_b + side*c_b;\n  fz = -drag*s_a*c_b - side*s_a*s_b - lift*c_a;\n\n  // attitude trig\n  c_phi = cos(att[1]);\n  s_phi = sin(att[1]);\n  c_th = cos(att[2]);\n  s_th = sin(att[2]);\n  c_psi = cos(att[3]);\n  s_psi = sin(att[3]);\n\n  // body translational dynamics\n  der(vel[1]) = fx/m - g*s_th + rates[3]*vel[2] - rates[2]*vel[3];\n  der(vel[2]) = fy/m + g*s_phi*c_th + rates[1]*vel[3] - rates[3]*vel[1];\n  der(vel[3]) = fz/m + g*c_phi*c_th + rates[2]*vel[1] - rates[1]*vel[2];\n\n  // angular dynamics\n  roll_accel = qbar*(KL0 + KLb*beta + KLp*(b/(2.0*speed_safe))*rates[1]\n               + KLr*(b/(2.0*speed_safe))*rates[3] + KLda*ail_rad + KLdr*rud_rad);\n  pitch_accel = qbar*(KM0 + KMa*alpha + KMq*(cbar/(2.0*speed_safe))*rates[2] + KMe*elev_rad);\n  yaw_accel = qbar*(KN0 + KNb*beta + KNp*(b/(2.0*speed_safe))*rates[1]\n              + KNr*(b/(2.0*speed_safe))*rates[3] + KNda*ail_rad + KNdr*rud_rad);\n  der(rates[1]) = roll_accel + ((Iyy - Izz)/Ixx)*rates[2]*rates[3] + (Ixz/Ixx)*rates[1]*rates[2];\n  der(rates[2]) = pitch_accel + ((Izz - Ixx)/Iyy)*rates[1]*rates[3] + (Ixz/Iyy)*(rates[3]^2 - rates[1]^2);\n  der(rates[3]) = yaw_accel + ((Ixx - Iyy)/Izz)*rates[1]*rates[2] + (Ixz/Izz)*rates[2]*rates[3];\n\n  // Euler kinematics\n  c_th_safe = sign(c_th)*max(abs(c_th), 1e-3);\n  common = rates[2]*s_phi + rates[3]*c_phi;\n  der(att[1]) = rates[1] + (s_th/c_th_safe)*common;\n  der(att[2]) = rates[2]*c_phi - rates[3]*s_phi;\n  der(att[3]) = common/c_th_safe;\n\n  // position kinematics: der(pos) = R(euler) * vel\n  r00 = c_th*c_psi;\n  r01 = s_phi*s_th*c_psi - c_phi*s_psi;\n  r02 = c_phi*s_th*c_psi + s_phi*s_psi;\n  r10 = c_th*s_psi;\n  r11 = s_phi*s_th*s_psi + c_phi*c_psi;\n  r12 = c_phi*s_th*s_psi - s_phi*c_psi;\n  r20 = -s_th;\n  r21 = s_phi*c_th;\n  r22 = c_phi*c_th;\n  der(pos[1]) = r00*vel[1] + r01*vel[2] + r02*vel[3];\n  der(pos[2]) = r10*vel[1] + r11*vel[2] + r12*vel[3];\n  der(pos[3]) = r20*vel[1] + r21*vel[2] + r22*vel[3];\nend SportCubGreybox;\n", "identified_name": "SportCubGreyboxIdentified", "identified_source": "// Identified model generated from SportCubGreybox.mo.\n// GreyBoxOEM output-error fit on the manual training chunks\nmodel SportCubGreyboxIdentified\n  \"6DOF lumped-parameter grey-box; faithful port of greybox.build_casadi_dynamics.\n\n   State order matches STATE_NAMES_EULER:\n     pos[3]   = p_n, p_e, p_d      (NED position)\n     vel[3]   = u, v, w            (body-frame velocity)\n     att[3]   = phi, theta, psi    (Euler angles)\n     rates[3] = p, q, r            (body angular rates)\n   Input order matches CONTROL_NAMES_OEM: aileron, elevator, throttle, rudder.\n\n   Parameter order matches config.full_parameter_vector():\n     10 fixed parameters  (m, S, b, cbar, rho, g, Ixx, Iyy, Izz, Ixz)\n     followed by 25 estimated aero parameters (SPORTCUB_PARAMETER_NAMES).\n   TAUS/TAUM/KB are declared for vector-layout parity but, like the CasADi\n   reference, are not used by the rigid-body dynamics (servo/motor lag lives in\n   the actuator model, not here).\n\n   Control-surface max deflections are `constant` (baked, as in the reference),\n   not estimated parameters, so the parameter vector stays [fixed(10), aero(25)].\n   The psi-wrap post-step in the reference RK4 stays in the Python wrapper.\"\n\n  // ---- fixed parameters ----\n  parameter Real m = 0.063;\n  parameter Real S = 0.05553;\n  parameter Real b = 0.617;\n  parameter Real cbar = 0.09;\n  parameter Real rho = 1.225;\n  parameter Real g = 9.81;\n  parameter Real Ixx = 0.00069;\n  parameter Real Iyy = 0.0006;\n  parameter Real Izz = 0.00125;\n  parameter Real Ixz = 3.5e-05;\n\n  // ---- estimated aero parameters (defaults = bounds.initial) ----\n  parameter Real CL0 = 0.47700010608928645;\n  parameter Real CLa = 4.971801757909464;\n  parameter Real CD0 = 0.15763858665056124;\n  parameter Real CDCLS = 4.5816458792265007e-29;\n  parameter Real CYb = -1.1999999999999997;\n  parameter Real KT = 3.0051395121968576;\n  parameter Real KL0 = 0.17514273141318545;\n  parameter Real KLb = -4.129457553820574;\n  parameter Real KLp = -2.0247369553265173;\n  parameter Real KLr = -36.41873587462714;\n  parameter Real KLda = -5.1961245937350125;\n  parameter Real KLdr = 2.610867033974031;\n  parameter Real KM0 = 0.06090743853613028;\n  parameter Real KMa = -1.02663072329208;\n  parameter Real KMq = -6.228078276437239e-19;\n  parameter Real KMe = -0.04395715790260636;\n  parameter Real KN0 = 0.09222528672859649;\n  parameter Real KNb = -2.3036623915317604;\n  parameter Real KNp = -0.2212578201936062;\n  parameter Real KNr = -22.239268176408533;\n  parameter Real KNda = -3.020979944251584;\n  parameter Real KNdr = 2.426215536055934;\n  parameter Real TAUS = 0.08;\n  parameter Real TAUM = 0.15;\n  parameter Real KB = -0.0005;\n\n  // ---- baked constants ----\n  constant Real DEG2RAD = 0.017453292519943295;\n  constant Real MAXDEF_ELEV = 23.0;\n  constant Real MAXDEF_AIL = 25.0;\n  constant Real MAXDEF_RUD = 30.0;\n\n  // ---- inputs ----\n  input Real aileron;\n  input Real elevator;\n  input Real throttle;\n  input Real rudder;\n\n  // ---- states ----\n  Real pos[3](start = {0, 0, 0});\n  Real vel[3](start = {16, 0, 0});\n  Real att[3](start = {0, 0, 0});\n  Real rates[3](start = {0, 0, 0});\n\nprotected\n  Real thr, elev_rad, ail_rad, rud_rad;\n  Real speed, speed_safe, alpha, beta, qbar;\n  Real c_a, s_a, c_b, s_b;\n  Real CL, CD, CY, lift, drag, side, thrust;\n  Real fx, fy, fz;\n  Real c_phi, s_phi, c_th, s_th, c_psi, s_psi, c_th_safe, common;\n  Real roll_accel, pitch_accel, yaw_accel;\n  Real r00, r01, r02, r10, r11, r12, r20, r21, r22;\n\nequation\n  // command conditioning\n  thr = max(throttle, 0.0);\n  elev_rad = MAXDEF_ELEV*DEG2RAD*elevator;\n  ail_rad = MAXDEF_AIL*DEG2RAD*aileron;\n  rud_rad = MAXDEF_RUD*DEG2RAD*rudder;\n\n  // airdata\n  speed = sqrt(vel[1]^2 + vel[2]^2 + vel[3]^2 + 1e-9);\n  speed_safe = max(speed, 1e-3);\n  alpha = atan2(vel[3], vel[1]);\n  beta = asin(min(0.99, max(-0.99, vel[2]/speed_safe)));\n  qbar = 0.5*rho*speed_safe^2;\n\n  c_a = cos(alpha);\n  s_a = sin(alpha);\n  c_b = cos(beta);\n  s_b = sin(beta);\n\n  // aerodynamic forces (wind axes) + body-fixed thrust\n  CL = CL0 + CLa*alpha;\n  CD = CD0 + CDCLS*CL^2;\n  CY = CYb*beta;\n  lift = qbar*S*CL;\n  drag = qbar*S*CD;\n  side = qbar*S*CY;\n  thrust = KT*m*thr;\n  fx = -drag*c_a*c_b - side*c_a*s_b + lift*s_a + thrust;\n  fy = -drag*s_b + side*c_b;\n  fz = -drag*s_a*c_b - side*s_a*s_b - lift*c_a;\n\n  // attitude trig\n  c_phi = cos(att[1]);\n  s_phi = sin(att[1]);\n  c_th = cos(att[2]);\n  s_th = sin(att[2]);\n  c_psi = cos(att[3]);\n  s_psi = sin(att[3]);\n\n  // body translational dynamics\n  der(vel[1]) = fx/m - g*s_th + rates[3]*vel[2] - rates[2]*vel[3];\n  der(vel[2]) = fy/m + g*s_phi*c_th + rates[1]*vel[3] - rates[3]*vel[1];\n  der(vel[3]) = fz/m + g*c_phi*c_th + rates[2]*vel[1] - rates[1]*vel[2];\n\n  // angular dynamics\n  roll_accel = qbar*(KL0 + KLb*beta + KLp*(b/(2.0*speed_safe))*rates[1]\n               + KLr*(b/(2.0*speed_safe))*rates[3] + KLda*ail_rad + KLdr*rud_rad);\n  pitch_accel = qbar*(KM0 + KMa*alpha + KMq*(cbar/(2.0*speed_safe))*rates[2] + KMe*elev_rad);\n  yaw_accel = qbar*(KN0 + KNb*beta + KNp*(b/(2.0*speed_safe))*rates[1]\n              + KNr*(b/(2.0*speed_safe))*rates[3] + KNda*ail_rad + KNdr*rud_rad);\n  der(rates[1]) = roll_accel + ((Iyy - Izz)/Ixx)*rates[2]*rates[3] + (Ixz/Ixx)*rates[1]*rates[2];\n  der(rates[2]) = pitch_accel + ((Izz - Ixx)/Iyy)*rates[1]*rates[3] + (Ixz/Iyy)*(rates[3]^2 - rates[1]^2);\n  der(rates[3]) = yaw_accel + ((Ixx - Iyy)/Izz)*rates[1]*rates[2] + (Ixz/Izz)*rates[2]*rates[3];\n\n  // Euler kinematics\n  c_th_safe = sign(c_th)*max(abs(c_th), 1e-3);\n  common = rates[2]*s_phi + rates[3]*c_phi;\n  der(att[1]) = rates[1] + (s_th/c_th_safe)*common;\n  der(att[2]) = rates[2]*c_phi - rates[3]*s_phi;\n  der(att[3]) = common/c_th_safe;\n\n  // position kinematics: der(pos) = R(euler) * vel\n  r00 = c_th*c_psi;\n  r01 = s_phi*s_th*c_psi - c_phi*s_psi;\n  r02 = c_phi*s_th*c_psi + s_phi*s_psi;\n  r10 = c_th*s_psi;\n  r11 = s_phi*s_th*s_psi + c_phi*c_psi;\n  r12 = c_phi*s_th*s_psi - s_phi*c_psi;\n  r20 = -s_th;\n  r21 = s_phi*c_th;\n  r22 = c_phi*c_th;\n  der(pos[1]) = r00*vel[1] + r01*vel[2] + r02*vel[3];\n  der(pos[2]) = r10*vel[1] + r11*vel[2] + r12*vel[3];\n  der(pos[3]) = r20*vel[1] + r21*vel[2] + r22*vel[3];\nend SportCubGreyboxIdentified;\n"}}, "config": {"mass": 0.075, "gravity": 9.81, "inertia": [0.0016, 0.0022, 0.0036], "inertia_xz": 5e-05, "rho": 1.18, "wing_area": 0.066, "wing_span": 0.62, "mean_chord": 0.11, "prop_arm": 0.035, "wing_speed": 4.5, "max_thrust": 0.32, "prop_wash_gain": 0.22}}, "flights": [{"name": "elev_3211_1__elev_001", "dt": 0.1, "dt_full": 0.01, "time": [0.0, 0.1, 0.2, 0.3, 0.4, 0.5, 0.6, 0.7, 0.8, 0.9, 1.0, 1.1, 1.2, 1.3, 1.4, 1.5, 1.6, 1.7, 1.8, 1.9, 2.0, 2.1, 2.2, 2.3, 2.4], "state": [[0.0, 0.0, 0.0, 4.9744, 0.2198, 0.5479, 0.9937, 0.0042, 0.0859, 0.0711, 0.2018, -0.2814, 0.0239], [0.4961, 0.0935, -0.0236, 5.0337, 0.2192, 0.5463, 0.9946, 0.0155, 0.073, 0.0716, 0.2274, -0.2805, 0.0344], [0.9927, 0.1857, -0.0336, 5.0004, 0.1942, 0.534, 0.9952, 0.0284, 0.0588, 0.0725, 0.2163, -0.336, 0.0451], [1.4861, 0.2736, -0.027, 4.9669, 0.1455, 0.5198, 0.9957, 0.0401, 0.0402, 0.0737, 0.1981, -0.4975, 0.0508], [1.9755, 0.3549, -0.001, 4.9041, 0.0828, 0.4366, 0.9958, 0.0523, 0.0124, 0.0746, 0.2249, -0.5997, 0.0415], [2.4538, 0.4271, 0.0448, 4.7745, 0.0227, 0.3644, 0.9949, 0.0664, -0.0148, 0.0739, 0.265, -0.4982, -0.0304], [2.918, 0.4874, 0.1085, 4.6627, -0.0198, 0.3469, 0.9936, 0.0819, -0.0352, 0.0691, 0.2725, -0.3664, -0.1048], [3.3696, 0.5335, 0.1857, 4.4822, -0.0677, 0.34, 0.9922, 0.0958, -0.0489, 0.0626, 0.2272, -0.2222, -0.1147], [3.7925, 0.5637, 0.2662, 4.084, -0.1284, 0.313, 0.9911, 0.106, -0.0561, 0.0572, 0.135, -0.1324, -0.0851], [4.1795, 0.5783, 0.3409, 3.8926, -0.2289, 0.268, 0.9905, 0.111, -0.0607, 0.0531, 0.0612, -0.0371, -0.0885], [4.571, 0.5797, 0.4119, 3.9921, -0.3169, 0.2577, 0.9906, 0.1134, -0.0589, 0.0479, 0.0181, 0.0692, -0.1272], [4.9572, 0.5705, 0.4752, 3.7231, -0.3718, 0.2116, 0.9913, 0.1128, -0.0535, 0.0421, -0.0869, 0.1255, -0.1222], [5.3234, 0.5503, 0.5227, 3.7847, -0.479, 0.1566, 0.9929, 0.1048, -0.0444, 0.0358, -0.2451, 0.2584, -0.1948], [5.718, 0.5183, 0.559, 3.9782, -0.5176, 0.1537, 0.9951, 0.0914, -0.0278, 0.0251, -0.2472, 0.3616, -0.256], [6.1053, 0.4805, 0.5799, 3.7074, -0.4781, 0.1234, 0.9966, 0.081, -0.008, 0.014, -0.1871, 0.4024, -0.2463], [6.4656, 0.44, 0.5817, 3.5539, -0.4445, 0.0871, 0.9974, 0.0706, 0.0132, 0.0039, -0.2723, 0.3958, -0.2055], [6.8243, 0.3972, 0.5671, 3.6425, -0.4185, 0.066, 0.998, 0.0539, 0.0332, -0.0035, -0.3827, 0.4229, -0.178], [7.1939, 0.3535, 0.5374, 3.7806, -0.3622, 0.0876, 0.9977, 0.0344, 0.0573, -0.0108, -0.387, 0.4934, -0.1788], [7.5752, 0.311, 0.4928, 3.9118, -0.2861, 0.1332, 0.9964, 0.0157, 0.0818, -0.0168, -0.3556, 0.4619, -0.128], [7.9675, 0.2719, 0.4345, 4.0384, -0.2057, 0.1905, 0.9944, 0.0001, 0.104, -0.0202, -0.2304, 0.4109, -0.0716], [8.3719, 0.2378, 0.3639, 4.1868, -0.1268, 0.2599, 0.9923, -0.0069, 0.122, -0.0217, -0.055, 0.2562, -0.005], [8.7926, 0.2097, 0.2842, 4.3849, -0.0672, 0.31, 0.9913, -0.0074, 0.1298, -0.0203, -0.0152, 0.0421, 0.0556], [9.2339, 0.1881, 0.2007, 4.5687, -0.0271, 0.3376, 0.9916, -0.009, 0.1279, -0.0165, -0.0756, -0.1332, 0.0823], [9.6892, 0.1734, 0.1202, 4.6318, 0.0022, 0.3308, 0.9927, -0.0136, 0.119, -0.0116, -0.1113, -0.201, 0.0769], [10.1497, 0.166, 0.0474, 4.7039, 0.0415, 0.3453, 0.9939, -0.018, 0.1088, -0.0075, -0.0639, -0.2486, 0.07]], "pos": [[0.0, 0.0, -0.0], [0.093, 0.496, 0.024], [0.186, 0.993, 0.034], [0.274, 1.486, 0.027], [0.355, 1.975, 0.001], [0.427, 2.454, -0.045], [0.487, 2.918, -0.108], [0.533, 3.37, -0.186], [0.564, 3.792, -0.266], [0.578, 4.179, -0.341], [0.58, 4.571, -0.412], [0.571, 4.957, -0.475], [0.55, 5.323, -0.523], [0.518, 5.718, -0.559], [0.481, 6.105, -0.58], [0.44, 6.466, -0.582], [0.397, 6.824, -0.567], [0.353, 7.194, -0.537], [0.311, 7.575, -0.493], [0.272, 7.968, -0.434], [0.238, 8.372, -0.364], [0.21, 8.793, -0.284], [0.188, 9.234, -0.201], [0.173, 9.689, -0.12], [0.166, 10.15, -0.047]], "quat": [[-0.06375, 0.75297, 0.6524, 0.05779], [-0.06263, 0.75397, 0.65265, 0.04066], [-0.06168, 0.755, 0.65246, 0.02151], [-0.05679, 0.75618, 0.65189, 0.0001], [-0.04571, 0.75689, 0.65133, -0.02824], [-0.03651, 0.75581, 0.65124, -0.05746], [-0.03301, 0.75143, 0.65377, -0.08277], [-0.03316, 0.7459, 0.65732, -0.10229], [-0.03528, 0.74127, 0.66041, -0.1146], [-0.03556, 0.73801, 0.66284, -0.12135], [-0.03857, 0.73436, 0.66663, -0.12183], [-0.04195, 0.7307, 0.67118, -0.11762], [-0.04272, 0.72738, 0.67673, -0.10552], [-0.04495, 0.72139, 0.68591, -0.08434], [-0.05159, 0.71458, 0.6948, -0.06297], [-0.05923, 0.70803, 0.70253, -0.04057], [-0.06159, 0.70318, 0.70819, -0.01461], [-0.06481, 0.69784, 0.71313, 0.01618], [-0.06895, 0.69266, 0.71644, 0.04671], [-0.07361, 0.68884, 0.71741, 0.07353], [-0.08139, 0.68632, 0.71695, 0.09121], [-0.0866, 0.68661, 0.71529, 0.09702], [-0.08412, 0.68951, 0.71284, 0.09679], [-0.07455, 0.69373, 0.7102, 0.0938], [-0.06421, 0.6975, 0.70804, 0.08972]], "euler": [[0.0209, 0.171, 0.1447], [0.0418, 0.1436, 0.1468], [0.0655, 0.1132, 0.1492], [0.0861, 0.0743, 0.1511], [0.1062, 0.0168, 0.1505], [0.1305, -0.0393, 0.1458], [0.159, -0.0813, 0.1323], [0.1861, -0.1092, 0.1159], [0.2067, -0.1236, 0.1024], [0.2169, -0.1324, 0.0928], [0.2227, -0.1279, 0.0823], [0.2225, -0.1158, 0.0719], [0.2074, -0.0958, 0.0621], [0.1819, -0.06, 0.0449], [0.162, -0.0183, 0.0266], [0.1414, 0.0258, 0.0096], [0.1078, 0.0667, -0.0035], [0.0679, 0.1153, -0.0178], [0.029, 0.1643, -0.0314], [-0.0042, 0.2084, -0.0411], [-0.0196, 0.2443, -0.0461], [-0.0206, 0.2601, -0.0436], [-0.0227, 0.2562, -0.0362], [-0.0307, 0.2383, -0.0271], [-0.0384, 0.2178, -0.0192]], "stick_full": [[0.451, 0.0, 0.0, 0.0], [0.451, 0.0, 0.0, 0.0], [0.451, 0.0, 0.0, 0.0], [0.451, 0.0, 0.0, 0.0], [0.451, 0.0, 0.0, 0.0], [0.451, 0.0, 0.0, 0.0], [0.451, 0.0, 0.0, 0.0], [0.451, 0.0, 0.0, 0.0], [0.451, 0.036, 0.0, 0.0], [0.451, 0.036, 0.0, 0.0], [0.451, 0.036, 0.0, 0.0], [0.451, 0.036, 0.0, 0.0], [0.451, 0.036, 0.0, 0.0], [0.451, 0.036, 0.0, 0.0], [0.451, 0.036, 0.0, 0.0], [0.451, 0.036, 0.0, 0.0], [0.451, 0.036, 0.0, 0.0], [0.451, 0.036, 0.0, 0.0], [0.451, 0.264, 0.0, 0.0], [0.451, 0.264, 0.0, 0.0], [0.451, 0.264, 0.0, 0.0], [0.451, 0.264, 0.0, 0.0], [0.451, 0.264, 0.0, 0.0], [0.451, 0.264, 0.0, 0.0], [0.451, 0.264, 0.0, 0.0], [0.451, 0.264, 0.0, 0.0], [0.451, 0.264, 0.0, 0.0], [0.451, 0.264, 0.0, 0.0], [0.451, 0.264, 0.0, 0.0], [0.451, 0.33, 0.0, 0.0], [0.451, 0.33, 0.0, 0.0], [0.451, 0.33, 0.0, 0.0], [0.451, 0.33, 0.0, 0.0], [0.451, 0.33, 0.0, 0.0], [0.451, 0.33, 0.0, 0.0], [0.451, 0.33, 0.0, 0.0], [0.451, 0.33, 0.0, 0.0], [0.451, 0.33, 0.0, 0.0], [0.451, 0.33, 0.0, 0.0], [0.451, 0.33, 0.0, 0.0], [0.451, 0.33, 0.0, 0.0], [0.451, 0.33, 0.0, 0.0], [0.451, 0.322, 0.0, 0.0], [0.451, 0.322, 0.0, 0.0], [0.451, 0.322, 0.0, 0.0], [0.451, 0.322, 0.0, 0.0], [0.451, 0.322, 0.0, 0.0], [0.451, 0.322, 0.0, 0.0], [0.451, 0.322, 0.0, 0.0], [0.451, 0.322, 0.0, 0.0], [0.451, 0.322, 0.0, 0.0], [0.451, 0.322, 0.0, 0.0], [0.451, 0.322, 0.0, 0.0], [0.451, 0.322, 0.0, 0.0], [0.451, 0.318, 0.0, 0.0], [0.451, 0.318, 0.0, 0.0], [0.451, 0.318, 0.0, 0.0], [0.451, 0.318, 0.0, 0.0], [0.451, 0.318, 0.0, 0.0], [0.451, 0.318, 0.0, 0.0], [0.451, 0.318, 0.0, 0.0], [0.451, 0.318, 0.0, 0.0], [0.451, 0.318, 0.0, 0.0], [0.451, 0.318, 0.0, 0.0], [0.451, 0.318, 0.0, 0.0], [0.451, 0.21, 0.0, 0.0], [0.451, 0.21, 0.0, 0.0], [0.451, 0.21, 0.0, 0.0], [0.451, 0.21, 0.0, 0.0], [0.451, 0.21, 0.0, 0.0], [0.451, 0.21, 0.0, 0.0], [0.451, 0.21, 0.0, 0.0], [0.451, 0.21, 0.0, 0.0], [0.451, 0.21, 0.0, 0.0], [0.451, 0.21, 0.0, 0.0], [0.451, 0.21, 0.0, 0.0], [0.451, 0.21, 0.0, 0.0], [0.451, -0.042, 0.0, 0.0], [0.451, -0.042, 0.0, 0.0], [0.451, -0.042, 0.0, 0.0], [0.451, -0.042, 0.0, 0.0], [0.451, -0.042, 0.0, 0.0], [0.451, -0.042, 0.0, 0.0], [0.451, -0.042, 0.0, 0.0], [0.451, -0.042, 0.0, 0.0], [0.451, -0.042, 0.0, 0.0], [0.451, -0.042, 0.0, 0.0], [0.451, -0.042, 0.0, 0.0], [0.451, -0.304, 0.0, 0.0], [0.451, -0.304, 0.0, 0.0], [0.451, -0.304, 0.0, 0.0], [0.451, -0.304, 0.0, 0.0], [0.451, -0.304, 0.0, 0.0], [0.451, -0.304, 0.0, 0.0], [0.451, -0.304, 0.0, 0.0], [0.451, -0.304, 0.0, 0.0], [0.451, -0.304, 0.0, 0.0], [0.451, -0.304, 0.0, 0.0], [0.451, -0.304, 0.0, 0.0], [0.451, -0.304, 0.0, 0.0], [0.451, -0.304, 0.0, 0.0], [0.451, -0.304, 0.0, 0.0], [0.451, -0.398, 0.0, 0.0], [0.451, -0.398, 0.0, 0.0], [0.451, -0.398, 0.0, 0.0], [0.451, -0.398, 0.0, 0.0], [0.451, -0.398, 0.0, 0.0], [0.451, -0.398, 0.0, 0.0], [0.451, -0.398, 0.0, 0.0], [0.451, -0.398, 0.0, 0.0], [0.451, -0.398, 0.0, 0.0], [0.451, -0.398, 0.0, 0.0], [0.451, -0.398, 0.0, 0.0], [0.451, -0.398, 0.0, 0.0], [0.451, -0.398, 0.0, 0.0], [0.451, -0.398, 0.0, 0.0], [0.451, -0.398, 0.0, 0.0], [0.451, -0.398, 0.0, 0.0], [0.451, -0.398, 0.0, 0.0], [0.451, -0.398, 0.0, 0.0], [0.451, -0.398, 0.0, 0.0], [0.451, -0.398, 0.0, 0.0], [0.451, -0.398, 0.0, 0.0], [0.451, -0.398, 0.0, 0.0], [0.451, -0.398, 0.0, 0.0], [0.451, -0.398, 0.0, 0.0], [0.451, -0.398, 0.0, 0.0], [0.451, -0.398, 0.0, 0.0], [0.451, -0.398, 0.0, 0.0], [0.451, -0.398, 0.0, 0.0], [0.451, -0.398, 0.0, 0.0], [0.451, -0.398, 0.0, 0.0], [0.451, -0.398, 0.0, 0.0], [0.451, -0.398, 0.0, 0.0], [0.451, -0.398, 0.0, 0.0], [0.451, -0.398, 0.0, 0.0], [0.451, -0.398, 0.0, 0.0], [0.451, -0.338, 0.0, 0.0], [0.451, -0.338, 0.0, 0.0], [0.451, -0.338, 0.0, 0.0], [0.451, -0.338, 0.0, 0.0], [0.451, -0.338, 0.0, 0.0], [0.451, -0.338, 0.0, 0.0], [0.451, -0.338, 0.0, 0.0], [0.451, -0.338, 0.0, 0.0], [0.451, -0.338, 0.0, 0.0], [0.451, -0.338, 0.0, 0.0], [0.451, -0.338, 0.0, 0.0], [0.451, -0.354, 0.0, 0.0], [0.451, -0.354, 0.0, 0.0], [0.451, -0.354, 0.0, 0.0], [0.451, -0.354, 0.0, 0.0], [0.451, -0.354, 0.0, 0.0], [0.451, -0.354, 0.0, 0.0], [0.451, -0.354, 0.0, 0.0], [0.451, -0.354, 0.0, 0.0], [0.451, -0.354, 0.0, 0.0], [0.451, -0.354, 0.0, 0.0], [0.451, -0.354, 0.0, 0.0], [0.451, -0.354, 0.0, 0.0], [0.451, -0.354, 0.0, 0.0], [0.451, -0.354, 0.0, 0.0], [0.451, -0.354, 0.0, 0.0], [0.451, -0.354, 0.0, 0.0], [0.451, -0.354, 0.0, 0.0], [0.451, -0.354, 0.0, 0.0], [0.451, -0.354, 0.0, 0.0], [0.451, -0.354, 0.0, 0.0], [0.451, -0.354, 0.0, 0.0], [0.451, -0.354, 0.0, 0.0], [0.451, -0.354, 0.0, 0.0], [0.451, -0.354, 0.0, 0.0], [0.451, -0.354, 0.0, 0.0], [0.451, -0.354, 0.0, 0.0], [0.451, -0.354, 0.0, 0.0], [0.451, -0.354, 0.0, 0.0], [0.451, -0.354, 0.0, 0.0], [0.451, -0.354, 0.0, 0.0], [0.451, -0.354, 0.0, 0.0], [0.451, -0.354, 0.0, 0.0], [0.451, -0.354, 0.0, 0.0], [0.451, -0.354, 0.0, 0.0], [0.451, -0.354, 0.0, 0.0], [0.451, -0.354, 0.0, 0.0], [0.451, -0.232, 0.0, 0.0], [0.451, -0.232, 0.0, 0.0], [0.451, -0.232, 0.0, 0.0], [0.451, -0.232, 0.0, 0.0], [0.451, -0.232, 0.0, 0.0], [0.451, -0.232, 0.0, 0.0], [0.451, -0.232, 0.0, 0.0], [0.451, -0.232, 0.0, 0.0], [0.451, -0.232, 0.0, 0.0], [0.451, -0.232, 0.0, 0.0], [0.451, 0.0, 0.0, 0.0], [0.451, 0.0, 0.0, 0.0], [0.451, 0.0, 0.0, 0.0], [0.451, 0.0, 0.0, 0.0], [0.451, 0.0, 0.0, 0.0], [0.451, 0.0, 0.0, 0.0], [0.451, 0.0, 0.0, 0.0], [0.451, 0.0, 0.0, 0.0], [0.451, 0.0, 0.0, 0.0], [0.451, 0.0, 0.0, 0.0], [0.451, 0.0, 0.0, 0.0], [0.451, 0.19, 0.0, 0.0], [0.451, 0.19, 0.0, 0.0], [0.451, 0.19, 0.0, 0.0], [0.451, 0.19, 0.0, 0.0], [0.451, 0.19, 0.0, 0.0], [0.451, 0.19, 0.0, 0.0], [0.451, 0.19, 0.0, 0.0], [0.451, 0.19, 0.0, 0.0], [0.451, 0.19, 0.0, 0.0], [0.451, 0.19, 0.0, 0.0], [0.451, 0.19, 0.0, 0.0], [0.451, 0.284, 0.0, 0.0], [0.451, 0.284, 0.0, 0.0], [0.451, 0.284, 0.0, 0.0], [0.451, 0.284, 0.0, 0.0], [0.451, 0.284, 0.0, 0.0], [0.451, 0.284, 0.0, 0.0], [0.451, 0.284, 0.0, 0.0], [0.451, 0.284, 0.0, 0.0], [0.451, 0.284, 0.0, 0.0], [0.451, 0.284, 0.0, 0.0], [0.451, 0.284, 0.0, 0.0], [0.451, 0.284, 0.0, 0.0], [0.451, 0.284, 0.0, 0.0], [0.451, 0.284, 0.0, 0.0], [0.451, 0.284, 0.0, 0.0], [0.451, 0.284, 0.0, 0.0], [0.451, 0.346, 0.0, 0.0], [0.451, 0.346, 0.0, 0.0], [0.451, 0.346, 0.0, 0.0], [0.451, 0.346, 0.0, 0.0], [0.451, 0.346, 0.0, 0.0], [0.451, 0.346, 0.0, 0.0], [0.451, 0.346, 0.0, 0.0], [0.451, 0.346, 0.0, 0.0], [0.451, 0.346, 0.0, 0.0], [0.451, 0.346, 0.0, 0.0], [0.451, 0.33, 0.0, 0.0], [0.451, 0.33, 0.0, 0.0], [0.451, 0.33, 0.0, 0.0], [0.451, 0.33, 0.0, 0.0], [0.451, 0.33, 0.0, 0.0], [0.451, 0.33, 0.0, 0.0], [0.451, 0.33, 0.0, 0.0], [0.451, 0.33, 0.0, 0.0]], "labels_full": [3, 3, 3, 3, 3, 3, 3, 3, 3, 3, 3, 3, 3, 3, 3, 3, 3, 3, 3, 3, 3, 3, 3, 3, 3, 3, 3, 3, 3, 3, 3, 3, 3, 3, 3, 3, 3, 3, 3, 3, 3, 3, 3, 3, 3, 3, 3, 3, 3, 3, 3, 3, 3, 3, 3, 3, 3, 3, 3, 3, 3, 3, 3, 3, 3, 3, 3, 3, 3, 3, 3, 3, 3, 3, 3, 3, 3, 3, 3, 3, 3, 3, 3, 3, 3, 3, 3, 3, 3, 3, 3, 3, 3, 3, 3, 3, 3, 3, 3, 3, 3, 3, 3, 3, 3, 3, 3, 3, 3, 3, 3, 3, 3, 3, 3, 3, 3, 3, 3, 3, 3, 3, 3, 3, 3, 3, 3, 3, 3, 3, 3, 3, 3, 3, 3, 3, 3, 3, 3, 3, 3, 3, 3, 3, 3, 3, 3, 3, 3, 3, 3, 3, 3, 3, 3, 3, 3, 3, 3, 3, 3, 3, 3, 3, 3, 3, 3, 3, 3, 3, 3, 3, 3, 3, 3, 3, 3, 3, 3, 3, 3, 3, 3, 3, 3, 3, 3, 3, 3, 3, 3, 3, 3, 3, 3, 3, 3, 3, 3, 3, 3, 3, 3, 3, 3, 3, 3, 3, 3, 3, 3, 3, 3, 3, 3, 3, 3, 3, 3, 3, 3, 3, 3, 3, 3, 3, 3, 3, 3, 3, 3, 3, 3, 3, 3, 3, 3, 3, 3, 3, 3, 3, 3, 3, 3, 3, 3, 3, 3, 3], "labels": [3, 3, 3, 3, 3, 3, 3, 3, 3, 3, 3, 3, 3, 3, 3, 3, 3, 3, 3, 3, 3, 3, 3, 3, 3], "mode": [0, 0, 0, 0, 0, 0, 0, 0, 0, 0, 0, 0, 0, 0, 0, 0, 0, 0, 0, 0, 0, 0, 0, 0, 0], "mode_full": [0, 0, 0, 0, 0, 0, 0, 0, 0, 0, 0, 0, 0, 0, 0, 0, 0, 0, 0, 0, 0, 0, 0, 0, 0, 0, 0, 0, 0, 0, 0, 0, 0, 0, 0, 0, 0, 0, 0, 0, 0, 0, 0, 0, 0, 0, 0, 0, 0, 0, 0, 0, 0, 0, 0, 0, 0, 0, 0, 0, 0, 0, 0, 0, 0, 0, 0, 0, 0, 0, 0, 0, 0, 0, 0, 0, 0, 0, 0, 0, 0, 0, 0, 0, 0, 0, 0, 0, 0, 0, 0, 0, 0, 0, 0, 0, 0, 0, 0, 0, 0, 0, 0, 0, 0, 0, 0, 0, 0, 0, 0, 0, 0, 0, 0, 0, 0, 0, 0, 0, 0, 0, 0, 0, 0, 0, 0, 0, 0, 0, 0, 0, 0, 0, 0, 0, 0, 0, 0, 0, 0, 0, 0, 0, 0, 0, 0, 0, 0, 0, 0, 0, 0, 0, 0, 0, 0, 0, 0, 0, 0, 0, 0, 0, 0, 0, 0, 0, 0, 0, 0, 0, 0, 0, 0, 0, 0, 0, 0, 0, 0, 0, 0, 0, 0, 0, 0, 0, 0, 0, 0, 0, 0, 0, 0, 0, 0, 0, 0, 0, 0, 0, 0, 0, 0, 0, 0, 0, 0, 0, 0, 0, 0, 0, 0, 0, 0, 0, 0, 0, 0, 0, 0, 0, 0, 0, 0, 0, 0, 0, 0, 0, 0, 0, 0, 0, 0, 0, 0, 0, 0, 0, 0, 0, 0, 0, 0, 0, 0, 0], "tracked": [1, 1, 1, 1, 1, 1, 1, 1, 1, 1, 1, 1, 1, 1, 1, 1, 1, 1, 1, 1, 1, 1, 1, 1, 1], "tracked_full": [1, 1, 1, 1, 1, 1, 1, 1, 1, 1, 1, 1, 1, 1, 1, 1, 1, 1, 1, 1, 1, 1, 1, 1, 1, 1, 1, 1, 1, 1, 1, 1, 1, 1, 1, 1, 1, 1, 1, 1, 1, 1, 1, 1, 1, 1, 1, 1, 1, 1, 1, 1, 1, 1, 1, 1, 1, 1, 1, 1, 1, 1, 1, 1, 1, 1, 1, 1, 1, 1, 1, 1, 1, 1, 1, 1, 1, 1, 1, 1, 1, 1, 1, 1, 1, 1, 1, 1, 1, 1, 1, 1, 1, 1, 1, 1, 1, 1, 1, 1, 1, 1, 1, 1, 1, 1, 1, 1, 1, 1, 1, 1, 1, 1, 1, 1, 1, 1, 1, 1, 1, 1, 1, 1, 1, 1, 1, 1, 1, 1, 1, 1, 1, 1, 1, 1, 1, 1, 1, 1, 1, 1, 1, 1, 1, 1, 1, 1, 1, 1, 1, 1, 1, 1, 1, 1, 1, 1, 1, 1, 1, 1, 1, 1, 1, 1, 1, 1, 1, 1, 1, 1, 1, 1, 1, 1, 1, 1, 1, 1, 1, 1, 1, 1, 1, 1, 1, 1, 1, 1, 1, 1, 1, 1, 1, 1, 1, 1, 1, 1, 1, 1, 1, 1, 1, 1, 1, 1, 1, 1, 1, 1, 1, 1, 1, 1, 1, 1, 1, 1, 1, 1, 1, 1, 1, 1, 1, 1, 1, 1, 1, 1, 1, 1, 1, 1, 1, 1, 1, 1, 1, 1, 1, 1, 1, 1, 1, 1, 1, 1], "bias": [0.2, 0.0742, -0.0274, -0.0145], "autonomous": false, "segments": [{"kind": "manual", "start_s": 0.0, "stop_s": 2.5, "split": "train", "scores": {"6DOF-LinearSS": 1.3931, "6DOF-RidgeResidual": 9.906, "6DOF-GreyBoxOEM": 0.5717, "6DOF-EquationError-LS": 1.1834, "6DOF-SINDy": 1.0653, "6DOF-Koopman-EDMD": 38.5395, "6DOF-Symbolic-Stepwise": 0.87, "6DOF-Subspace-Hankel": 0.2039, "6DOF-GP-RBF": 6.9545}}], "stabilized_splits": [], "ground_splits": [], "ground_z": null}, {"name": "trim_2__elev_001", "dt": 0.1, "dt_full": 0.01, "time": [0.0, 0.1, 0.2, 0.3, 0.4, 0.5, 0.6, 0.7, 0.8, 0.9, 1.0, 1.1, 1.2, 1.3, 1.4, 1.5, 1.6, 1.7, 1.8, 1.9], "state": [[0.0, 0.0, 0.0, 5.7807, 0.347, 0.9478, 0.965, -0.0146, 0.1064, -0.2392, -0.2093, -0.0794, 0.0031], [0.5356, -0.2356, -0.0223, 5.7506, 0.4128, 1.0046, 0.9649, -0.02, 0.1091, -0.2381, -0.054, 0.2138, 0.0207], [1.0749, -0.4646, -0.048, 5.7615, 0.4674, 1.1151, 0.9628, -0.0176, 0.1282, -0.2374, -0.0762, 0.5987, -0.0222], [1.6186, -0.692, -0.0955, 5.7716, 0.5188, 1.2624, 0.957, -0.0152, 0.1633, -0.2392, -0.1229, 0.6697, -0.0184], [2.162, -0.9187, -0.17, 5.7533, 0.5238, 1.3382, 0.9533, -0.0112, 0.1865, -0.2372, 0.1613, 0.1129, 0.1274], [2.7063, -1.1423, -0.2538, 5.8347, 0.515, 1.2565, 0.9571, 0.0038, 0.174, -0.2315, 0.375, -0.338, 0.2063], [3.2667, -1.3665, -0.3281, 6.0341, 0.5022, 1.2402, 0.9619, 0.0183, 0.1534, -0.2257, 0.3935, -0.367, 0.1289], [3.8443, -1.5952, -0.3859, 6.1146, 0.5096, 1.1923, 0.9648, 0.0348, 0.1308, -0.2256, 0.402, -0.3782, 0.03], [4.4202, -1.8262, -0.425, 6.064, 0.4961, 1.1136, 0.9664, 0.0477, 0.1083, -0.228, 0.3172, -0.3705, 0.0002], [4.9895, -2.0614, -0.4459, 6.0463, 0.4556, 1.0545, 0.9675, 0.0588, 0.0876, -0.23, 0.3268, -0.3571, 0.036], [5.5538, -2.3042, -0.45, 6.0246, 0.3696, 0.9938, 0.9683, 0.0708, 0.0665, -0.23, 0.2799, -0.3135, 0.0339], [6.1063, -2.5542, -0.4373, 5.9164, 0.2794, 0.9804, 0.9683, 0.0789, 0.0499, -0.2315, 0.2175, -0.2623, -0.0141], [6.6418, -2.811, -0.4077, 5.8177, 0.1963, 0.9959, 0.9678, 0.0866, 0.035, -0.2338, 0.2155, -0.2529, -0.0262], [7.1641, -3.0764, -0.3628, 5.7566, 0.1287, 0.9998, 0.9667, 0.0937, 0.0215, -0.2373, 0.1839, -0.1929, -0.0789], [7.6722, -3.3499, -0.3083, 5.6493, 0.0774, 0.9921, 0.9646, 0.1003, 0.0131, -0.2434, 0.1791, -0.0791, -0.1318], [8.1615, -3.6302, -0.2515, 5.5119, 0.0189, 0.9869, 0.962, 0.1088, 0.01, -0.2502, 0.1744, 0.0113, -0.1376], [8.6314, -3.9172, -0.1975, 5.378, -0.0479, 0.979, 0.9593, 0.1166, 0.0104, -0.2568, 0.1364, 0.0493, -0.1472], [9.0828, -4.2103, -0.1497, 5.2555, -0.1059, 0.9571, 0.9565, 0.1232, 0.0119, -0.2643, 0.116, 0.0188, -0.1821], [9.5179, -4.5105, -0.1089, 5.1977, -0.1524, 0.9132, 0.9531, 0.1277, 0.0103, -0.2741, 0.0821, -0.1306, -0.2171], [9.9409, -4.8216, -0.0721, 5.1652, -0.1888, 0.8312, 0.9495, 0.1281, 0.0017, -0.2864, 0.0686, -0.1974, -0.2552]], "pos": [[0.0, 0.0, -0.0], [-0.236, 0.536, 0.022], [-0.465, 1.075, 0.048], [-0.692, 1.619, 0.096], [-0.919, 2.162, 0.17], [-1.142, 2.706, 0.254], [-1.366, 3.267, 0.328], [-1.595, 3.844, 0.386], [-1.826, 4.42, 0.425], [-2.061, 4.99, 0.446], [-2.304, 5.554, 0.45], [-2.554, 6.106, 0.437], [-2.811, 6.642, 0.408], [-3.076, 7.164, 0.363], [-3.35, 7.672, 0.308], [-3.63, 8.162, 0.251], [-3.917, 8.631, 0.198], [-4.21, 9.083, 0.15], [-4.51, 9.518, 0.109], [-4.822, 9.941, 0.072]], "quat": [[-0.06495, 0.51319, 0.85153, 0.08559], [-0.06301, 0.51388, 0.85066, 0.09129], [-0.07819, 0.51291, 0.84864, 0.1031], [-0.10474, 0.50753, 0.84588, 0.12619], [-0.12392, 0.50634, 0.84185, 0.13981], [-0.12575, 0.51309, 0.8405, 0.12033], [-0.1214, 0.52053, 0.83975, 0.09556], [-0.1171, 0.52266, 0.84173, 0.06783], [-0.11033, 0.52215, 0.8446, 0.04285], [-0.10351, 0.52148, 0.84672, 0.02031], [-0.09705, 0.52211, 0.84733, -0.00305], [-0.09106, 0.52103, 0.84842, -0.02056], [-0.086, 0.519, 0.84966, -0.03644], [-0.08144, 0.51573, 0.85134, -0.05106], [-0.08019, 0.51003, 0.85419, -0.06167], [-0.08399, 0.50331, 0.85718, -0.06983], [-0.08979, 0.49675, 0.85996, -0.07512], [-0.09553, 0.48946, 0.8632, -0.0787], [-0.09754, 0.48018, 0.86777, -0.083], [-0.09182, 0.46892, 0.8739, -0.0894]], "euler": [[-0.0808, 0.1998, -0.4941], [-0.0926, 0.2024, -0.4933], [-0.0978, 0.2408, -0.4953], [-0.1128, 0.3102, -0.5076], [-0.1176, 0.3578, -0.5091], [-0.0778, 0.3415, -0.4881], [-0.0358, 0.3082, -0.4666], [0.0085, 0.2713, -0.4583], [0.044, 0.2332, -0.4582], [0.0751, 0.1978, -0.4593], [0.1081, 0.162, -0.4575], [0.1313, 0.1335, -0.4605], [0.1527, 0.1085, -0.4658], [0.1724, 0.0861, -0.474], [0.1888, 0.0741, -0.4872], [0.2063, 0.0738, -0.5013], [0.2209, 0.0799, -0.5143], [0.2324, 0.088, -0.5289], [0.241, 0.0897, -0.5491], [0.2455, 0.0767, -0.5764]], "stick_full": [[0.382, -0.994, 0.214, 0.0], [0.382, -0.994, 0.214, 0.0], [0.382, -0.994, 0.214, 0.0], [0.382, -0.994, 0.214, 0.0], [0.382, -0.994, 0.214, 0.0], [0.382, -0.994, 0.214, 0.0], [0.382, -0.994, 0.214, 0.0], [0.382, -0.994, 0.214, 0.0], [0.382, -0.994, 0.214, 0.0], [0.382, -0.994, 0.214, 0.0], [0.382, -0.994, 0.118, 0.0], [0.382, -0.994, 0.118, 0.0], [0.382, -0.994, 0.118, 0.0], [0.382, -0.994, 0.118, 0.0], [0.382, -0.994, 0.118, 0.0], [0.382, -0.994, 0.118, 0.0], [0.382, -0.994, 0.118, 0.0], [0.382, -0.994, 0.118, 0.0], [0.382, -0.994, 0.118, 0.0], [0.382, -0.994, 0.118, 0.0], [0.382, -0.994, 0.118, 0.0], [0.382, -0.994, 0.118, 0.0], [0.382, -0.592, 0.0, 0.0], [0.382, -0.592, 0.0, 0.0], [0.382, -0.592, 0.0, 0.0], [0.382, -0.592, 0.0, 0.0], [0.382, -0.592, 0.0, 0.0], [0.382, -0.592, 0.0, 0.0], [0.382, -0.592, 0.0, 0.0], [0.382, -0.592, 0.0, 0.0], [0.382, -0.592, 0.0, 0.0], [0.382, -0.592, 0.0, 0.0], [0.382, -0.348, 0.0, 0.0], [0.382, -0.348, 0.0, 0.0], [0.382, -0.348, 0.0, 0.0], [0.382, -0.348, 0.0, 0.0], [0.382, -0.348, 0.0, 0.0], [0.382, -0.348, 0.0, 0.0], [0.382, -0.348, 0.0, 0.0], [0.382, -0.348, 0.0, 0.0], [0.382, -0.348, 0.0, 0.0], [0.382, -0.348, 0.0, 0.0], [0.382, -0.348, 0.0, 0.0], [0.382, -0.348, 0.0, 0.0], [0.382, -0.348, 0.0, 0.0], [0.382, -0.348, 0.0, 0.0], [0.382, -0.348, 0.0, 0.0], [0.382, -0.392, 0.0, 0.0], [0.382, -0.392, 0.0, 0.0], [0.382, -0.392, 0.0, 0.0], [0.382, -0.392, 0.0, 0.0], [0.382, -0.392, 0.0, 0.0], [0.382, -0.392, 0.0, 0.0], [0.382, -0.392, 0.0, 0.0], [0.382, -0.392, 0.0, 0.0], [0.382, -0.392, 0.0, 0.0], [0.382, -0.392, 0.0, 0.0], [0.382, -0.392, 0.0, 0.0], [0.382, -0.036, 0.0, 0.0], [0.382, -0.036, 0.0, 0.0], [0.382, -0.036, 0.0, 0.0], [0.382, -0.036, 0.0, 0.0], [0.382, -0.036, 0.0, 0.0], [0.382, -0.036, 0.0, 0.0], [0.382, -0.036, 0.0, 0.0], [0.382, -0.036, 0.0, 0.0], [0.382, -0.036, 0.0, 0.0], [0.382, -0.036, 0.0, 0.0], [0.382, -0.036, 0.0, 0.0], [0.382, -0.036, 0.0, 0.0], [0.382, -0.036, 0.0, 0.0], [0.382, -0.05, 0.0, 0.0], [0.382, -0.05, 0.0, 0.0], [0.382, -0.05, 0.0, 0.0], [0.382, -0.05, 0.0, 0.0], [0.382, -0.05, 0.0, 0.0], [0.382, -0.05, 0.0, 0.0], [0.382, -0.05, 0.0, 0.0], [0.382, -0.05, 0.0, 0.0], [0.382, -0.05, 0.0, 0.0], [0.382, -0.05, 0.0, 0.0], [0.382, -0.05, 0.0, 0.0], [0.382, -0.05, 0.0, 0.0], [0.382, -0.05, 0.0, 0.0], [0.382, -0.05, 0.0, 0.0], [0.382, -0.05, 0.0, 0.0], [0.382, -0.08, 0.0, 0.0], [0.382, -0.08, 0.0, 0.0], [0.382, -0.08, 0.0, 0.0], [0.382, -0.08, 0.0, 0.0], [0.382, -0.08, 0.0, 0.0], [0.382, -0.08, 0.0, 0.0], [0.382, -0.08, 0.0, 0.0], [0.382, -0.08, 0.0, 0.0], [0.382, -0.08, 0.0, 0.0], [0.382, -0.08, 0.0, 0.0], [0.382, -0.234, 0.0, 0.0], [0.382, -0.234, 0.0, 0.0], [0.382, -0.234, 0.0, 0.0], [0.382, -0.234, 0.0, 0.0], [0.382, -0.234, 0.0, 0.0], [0.382, -0.234, 0.0, 0.0], [0.382, -0.234, 0.0, 0.0], [0.382, -0.234, 0.0, 0.0], [0.382, -0.234, 0.0, 0.0], [0.382, -0.234, 0.0, 0.0], [0.382, -0.234, 0.0, 0.0], [0.382, -0.234, 0.0, 0.0], [0.382, -0.234, 0.0, 0.0], [0.382, -0.234, 0.0, 0.0], [0.382, -0.402, 0.0, 0.0], [0.382, -0.402, 0.0, 0.0], [0.382, -0.402, 0.0, 0.0], [0.382, -0.402, 0.0, 0.0], [0.382, -0.402, 0.0, 0.0], [0.382, -0.402, 0.0, 0.0], [0.382, -0.402, 0.0, 0.0], [0.382, -0.402, 0.0, 0.0], [0.382, -0.402, 0.0, 0.0], [0.382, -0.402, 0.0, 0.0], [0.382, -0.402, 0.0, 0.0], [0.382, -0.402, 0.0, 0.0], [0.382, -0.516, 0.0, 0.0], [0.382, -0.516, 0.0, 0.0], [0.382, -0.516, 0.0, 0.0], [0.382, -0.516, 0.0, 0.0], [0.382, -0.516, 0.0, 0.0], [0.382, -0.516, 0.0, 0.0], [0.382, -0.516, 0.0, 0.0], [0.382, -0.516, 0.0, 0.0], [0.382, -0.516, 0.0, 0.0], [0.382, -0.516, 0.0, 0.0], [0.382, -0.516, 0.0, 0.0], [0.382, -0.516, 0.0, 0.0], [0.382, -0.516, 0.0, 0.0], [0.382, -0.516, 0.0, 0.0], [0.382, -0.53, 0.0, 0.0], [0.382, -0.53, 0.0, 0.0], [0.382, -0.53, 0.0, 0.0], [0.382, -0.53, 0.0, 0.0], [0.382, -0.53, 0.0, 0.0], [0.382, -0.53, 0.0, 0.0], [0.382, -0.53, 0.0, 0.0], [0.382, -0.53, 0.0, 0.0], [0.382, -0.53, 0.0, 0.0], [0.382, -0.53, 0.0, 0.0], [0.382, -0.568, 0.0, 0.0], [0.382, -0.568, 0.0, 0.0], [0.382, -0.568, 0.0, 0.0], [0.382, -0.568, 0.0, 0.0], [0.382, -0.568, 0.0, 0.0], [0.382, -0.568, 0.0, 0.0], [0.382, -0.568, 0.0, 0.0], [0.382, -0.568, 0.0, 0.0], [0.382, -0.568, 0.0, 0.0], [0.382, -0.568, 0.0, 0.0], [0.382, -0.568, 0.0, 0.0], [0.382, -0.568, 0.0, 0.0], [0.382, -0.568, 0.0, 0.0], [0.382, -0.568, 0.0, 0.0], [0.382, -0.574, 0.0, 0.0], [0.382, -0.574, 0.0, 0.0], [0.382, -0.574, 0.0, 0.0], [0.382, -0.574, 0.0, 0.0], [0.382, -0.574, 0.0, 0.0], [0.382, -0.574, 0.0, 0.0], [0.382, -0.574, 0.0, 0.0], [0.382, -0.574, 0.0, 0.0], [0.382, -0.574, 0.0, 0.0], [0.382, -0.574, 0.0, 0.0], [0.382, -0.554, 0.0, 0.0], [0.382, -0.554, 0.0, 0.0], [0.382, -0.554, 0.0, 0.0], [0.382, -0.554, 0.0, 0.0], [0.382, -0.554, 0.0, 0.0], [0.382, -0.554, 0.0, 0.0], [0.382, -0.554, 0.0, 0.0], [0.382, -0.554, 0.0, 0.0], [0.382, -0.554, 0.0, 0.0], [0.382, -0.554, 0.0, 0.0], [0.382, -0.554, 0.0, 0.0], [0.382, -0.554, 0.0, 0.0], [0.382, -0.554, 0.0, 0.0], [0.382, -0.554, 0.0, 0.0], [0.382, -0.554, 0.0, 0.0], [0.382, -0.554, 0.0, 0.0], [0.382, -0.506, 0.0, 0.0], [0.382, -0.506, 0.0, 0.0], [0.382, -0.506, 0.0, 0.0], [0.382, -0.506, 0.0, 0.0], [0.382, -0.506, 0.0, 0.0], [0.382, -0.506, 0.0, 0.0], [0.382, -0.506, 0.0, 0.0], [0.382, -0.506, 0.0, 0.0], [0.382, -0.506, 0.0, 0.0], [0.382, -0.506, 0.0, 0.0], [0.382, -0.506, 0.0, 0.0], [0.382, -0.506, 0.0, 0.0], [0.382, -0.49, 0.0, 0.0], [0.382, -0.49, 0.0, 0.0]], "labels_full": [3, 3, 3, 3, 3, 3, 3, 3, 3, 3, 3, 3, 3, 3, 3, 3, 3, 3, 3, 3, 3, 3, 3, 3, 3, 3, 3, 3, 3, 3, 3, 3, 3, 3, 3, 3, 3, 3, 3, 3, 3, 3, 3, 3, 3, 3, 3, 3, 3, 3, 3, 3, 3, 3, 3, 3, 3, 3, 3, 3, 3, 3, 3, 3, 3, 3, 3, 3, 3, 3, 3, 3, 3, 3, 3, 3, 3, 3, 3, 3, 3, 3, 3, 3, 3, 3, 3, 3, 3, 3, 3, 3, 3, 3, 3, 3, 3, 3, 3, 3, 3, 3, 3, 3, 3, 3, 3, 3, 3, 3, 3, 3, 3, 3, 3, 3, 3, 3, 3, 3, 3, 3, 3, 3, 3, 3, 3, 3, 3, 3, 3, 3, 3, 3, 3, 3, 3, 3, 3, 3, 3, 3, 3, 3, 3, 3, 3, 3, 3, 3, 3, 3, 3, 3, 3, 3, 3, 3, 3, 3, 3, 3, 3, 3, 3, 3, 3, 3, 3, 3, 3, 3, 3, 3, 3, 3, 3, 3, 3, 3, 3, 3, 3, 3, 3, 3, 3, 3, 3, 3, 3, 3, 3, 3, 3, 3, 3, 3, 3, 3], "labels": [3, 3, 3, 3, 3, 3, 3, 3, 3, 3, 3, 3, 3, 3, 3, 3, 3, 3, 3, 3], "mode": [0, 0, 0, 0, 0, 0, 0, 0, 0, 0, 0, 0, 0, 0, 0, 0, 0, 0, 0, 0], "mode_full": [0, 0, 0, 0, 0, 0, 0, 0, 0, 0, 0, 0, 0, 0, 0, 0, 0, 0, 0, 0, 0, 0, 0, 0, 0, 0, 0, 0, 0, 0, 0, 0, 0, 0, 0, 0, 0, 0, 0, 0, 0, 0, 0, 0, 0, 0, 0, 0, 0, 0, 0, 0, 0, 0, 0, 0, 0, 0, 0, 0, 0, 0, 0, 0, 0, 0, 0, 0, 0, 0, 0, 0, 0, 0, 0, 0, 0, 0, 0, 0, 0, 0, 0, 0, 0, 0, 0, 0, 0, 0, 0, 0, 0, 0, 0, 0, 0, 0, 0, 0, 0, 0, 0, 0, 0, 0, 0, 0, 0, 0, 0, 0, 0, 0, 0, 0, 0, 0, 0, 0, 0, 0, 0, 0, 0, 0, 0, 0, 0, 0, 0, 0, 0, 0, 0, 0, 0, 0, 0, 0, 0, 0, 0, 0, 0, 0, 0, 0, 0, 0, 0, 0, 0, 0, 0, 0, 0, 0, 0, 0, 0, 0, 0, 0, 0, 0, 0, 0, 0, 0, 0, 0, 0, 0, 0, 0, 0, 0, 0, 0, 0, 0, 0, 0, 0, 0, 0, 0, 0, 0, 0, 0, 0, 0, 0, 0, 0, 0, 0, 0], "tracked": [1, 1, 1, 1, 1, 1, 1, 1, 1, 1, 1, 1, 1, 1, 1, 1, 1, 1, 1, 1], "tracked_full": [1, 1, 1, 1, 1, 1, 1, 1, 1, 1, 1, 1, 1, 1, 1, 1, 1, 1, 1, 1, 1, 1, 1, 1, 1, 1, 1, 1, 1, 1, 1, 1, 1, 1, 1, 1, 1, 1, 1, 1, 1, 1, 1, 1, 1, 1, 1, 1, 1, 1, 1, 1, 1, 1, 1, 1, 1, 1, 1, 1, 1, 1, 1, 1, 1, 1, 1, 1, 1, 1, 1, 1, 1, 1, 1, 1, 1, 1, 1, 1, 1, 1, 1, 1, 1, 1, 1, 1, 1, 1, 1, 1, 1, 1, 1, 1, 1, 1, 1, 1, 1, 1, 1, 1, 1, 1, 1, 1, 1, 1, 1, 1, 1, 1, 1, 1, 1, 1, 1, 1, 1, 1, 1, 1, 1, 1, 1, 1, 1, 1, 1, 1, 1, 1, 1, 1, 1, 1, 1, 1, 1, 1, 1, 1, 1, 1, 1, 1, 1, 1, 1, 1, 1, 1, 1, 1, 1, 1, 1, 1, 1, 1, 1, 1, 1, 1, 1, 1, 1, 1, 1, 1, 1, 1, 1, 1, 1, 1, 1, 1, 1, 1, 1, 1, 1, 1, 1, 1, 1, 1, 1, 1, 1, 1, 1, 1, 1, 1, 1, 1], "bias": [0.2, -0.2, 0.1331, -0.0293], "autonomous": false, "segments": [{"kind": "manual", "start_s": 0.0, "stop_s": 2.0, "split": "train", "scores": {"6DOF-LinearSS": 1.1536, "6DOF-RidgeResidual": 5.4379, "6DOF-GreyBoxOEM": 0.6142, "6DOF-EquationError-LS": 0.5966, "6DOF-SINDy": 0.3576, "6DOF-Koopman-EDMD": 28.4362, "6DOF-Symbolic-Stepwise": 0.2963, "6DOF-Subspace-Hankel": 0.5331, "6DOF-GP-RBF": 3.4807}}], "stabilized_splits": [], "ground_splits": [], "ground_z": null}, {"name": "elev_3211_3__elev_001", "dt": 0.1, "dt_full": 0.01, "time": [0.0, 0.1, 0.2, 0.3, 0.4, 0.5, 0.6, 0.7, 0.8, 0.9, 1.0, 1.1, 1.2, 1.3, 1.4, 1.5, 1.6, 1.7, 1.8, 1.9, 2.0, 2.1, 2.2, 2.3, 2.4], "state": [[0.0, 0.0, 0.0, 4.0102, 0.6162, 0.1841, 0.9992, -0.0042, 0.0233, -0.0337, 0.2557, -0.0265, 0.2044], [0.413, 0.0352, 0.0002, 4.1934, 0.5494, 0.1818, 0.9994, 0.0098, 0.0221, -0.023, 0.2717, -0.0315, 0.2346], [0.8394, 0.0698, 0.0008, 4.2531, 0.4333, 0.1611, 0.9995, 0.0225, 0.0193, -0.0113, 0.22, -0.0526, 0.2389], [1.2631, 0.1016, 0.0037, 4.2125, 0.3111, 0.1715, 0.9993, 0.0318, 0.0171, 0.0002, 0.1276, 0.0, 0.2408], [1.684, 0.1313, 0.01, 4.2119, 0.1983, 0.2101, 0.9991, 0.036, 0.0182, 0.0119, 0.0344, 0.047, 0.2083], [2.1051, 0.1597, 0.0179, 4.2031, 0.1177, 0.2349, 0.9989, 0.0358, 0.02, 0.0207, -0.0922, 0.0189, 0.1259], [2.524, 0.1878, 0.026, 4.1839, 0.0803, 0.2446, 0.9991, 0.0279, 0.0207, 0.0254, -0.1927, 0.0721, 0.0678], [2.9428, 0.2171, 0.0341, 4.2078, 0.0697, 0.2852, 0.9991, 0.0183, 0.0255, 0.0288, -0.1901, 0.082, 0.0571], [3.3654, 0.2494, 0.041, 4.2419, 0.074, 0.2862, 0.9991, 0.0084, 0.0272, 0.0319, -0.2276, 0.0035, 0.0443], [3.7888, 0.2858, 0.0459, 4.227, 0.0968, 0.2627, 0.9991, -0.0027, 0.0261, 0.0341, -0.1632, -0.0256, 0.0387], [4.209, 0.3268, 0.0498, 4.2115, 0.1265, 0.2411, 0.999, -0.0074, 0.023, 0.0367, -0.0375, -0.1342, 0.0688], [4.6291, 0.3735, 0.0556, 4.2258, 0.1466, 0.1917, 0.999, -0.008, 0.0129, 0.041, -0.0352, -0.272, 0.1024], [5.0477, 0.4258, 0.0662, 4.1858, 0.157, 0.1223, 0.9988, -0.01, -0.0024, 0.0469, -0.0547, -0.322, 0.1277], [5.4587, 0.484, 0.0832, 4.1235, 0.1742, 0.0642, 0.9983, -0.0117, -0.0185, 0.0536, -0.0589, -0.3236, 0.1265], [5.8636, 0.5495, 0.1078, 4.0817, 0.2033, 0.0144, 0.9975, -0.0135, -0.035, 0.0594, -0.0024, -0.344, 0.0923], [6.2598, 0.6209, 0.1402, 3.9629, 0.2226, -0.0434, 0.9966, -0.0079, -0.0519, 0.0639, 0.2467, -0.3351, 0.0872], [6.6395, 0.6939, 0.1784, 3.8024, 0.2011, -0.1043, 0.9953, 0.0114, -0.0657, 0.0701, 0.4948, -0.248, 0.1168], [7.005, 0.7654, 0.2191, 3.685, 0.135, -0.1675, 0.9935, 0.0392, -0.073, 0.0781, 0.5814, -0.0968, 0.1297], [7.3605, 0.8325, 0.2566, 3.5725, 0.0292, -0.2176, 0.9915, 0.0665, -0.0717, 0.0862, 0.5151, 0.0924, 0.1086], [7.7058, 0.8918, 0.2854, 3.4388, -0.1003, -0.23, 0.9898, 0.0885, -0.0613, 0.0934, 0.4156, 0.2522, 0.0973], [8.0405, 0.9412, 0.3022, 3.3235, -0.2411, -0.2223, 0.9884, 0.1049, -0.0443, 0.1004, 0.2758, 0.4131, 0.0645], [8.371, 0.9815, 0.3036, 3.3182, -0.3775, -0.1973, 0.9879, 0.1125, -0.0183, 0.1056, 0.1809, 0.6308, 0.0397], [8.7079, 1.0145, 0.2858, 3.3962, -0.5221, -0.1341, 0.9867, 0.1168, 0.018, 0.1115, 0.0996, 0.82, -0.0023], [9.0533, 1.0414, 0.2464, 3.4779, -0.6248, -0.0329, 0.9852, 0.1122, 0.0601, 0.1145, -0.1266, 0.8042, -0.0609], [9.4073, 1.0649, 0.186, 3.6224, -0.684, 0.0349, 0.984, 0.0966, 0.0945, 0.1158, -0.3225, 0.6144, -0.0833]], "pos": [[0.0, 0.0, -0.0], [0.035, 0.413, -0.0], [0.07, 0.839, -0.001], [0.102, 1.263, -0.004], [0.131, 1.684, -0.01], [0.16, 2.105, -0.018], [0.188, 2.524, -0.026], [0.217, 2.943, -0.034], [0.249, 3.365, -0.041], [0.286, 3.789, -0.046], [0.327, 4.209, -0.05], [0.373, 4.629, -0.056], [0.426, 5.048, -0.066], [0.484, 5.459, -0.083], [0.55, 5.864, -0.108], [0.621, 6.26, -0.14], [0.694, 6.639, -0.178], [0.765, 7.005, -0.219], [0.833, 7.361, -0.257], [0.892, 7.706, -0.285], [0.941, 8.041, -0.302], [0.981, 8.371, -0.304], [1.014, 8.708, -0.286], [1.041, 9.053, -0.246], [1.065, 9.407, -0.186]], "quat": [[-0.01346, 0.68269, 0.73033, 0.01946], [-0.02252, 0.69043, 0.723, 0.00872], [-0.02958, 0.69878, 0.71472, -0.00231], [-0.0346, 0.70677, 0.70652, -0.01038], [-0.03833, 0.71493, 0.69803, -0.01258], [-0.03943, 0.721, 0.69172, -0.01115], [-0.03431, 0.72443, 0.68847, -0.00509], [-0.03097, 0.72686, 0.68606, 0.00512], [-0.02512, 0.72902, 0.6839, 0.01328], [-0.01657, 0.73055, 0.68235, 0.02033], [-0.01104, 0.73237, 0.68048, 0.0215], [-0.00342, 0.73545, 0.67741, 0.0148], [0.00883, 0.73946, 0.67312, 0.00538], [0.02133, 0.74384, 0.668, -0.0048], [0.0343, 0.74739, 0.66332, -0.01521], [0.04228, 0.74988, 0.6595, -0.03107], [0.03838, 0.75334, 0.65424, -0.05455], [0.0239, 0.75774, 0.64729, -0.07929], [0.00365, 0.76203, 0.64012, -0.09772], [-0.01926, 0.76593, 0.63385, -0.10593], [-0.04283, 0.76988, 0.62794, -0.10553], [-0.06661, 0.77322, 0.62381, -0.09246], [-0.09534, 0.77657, 0.61885, -0.06984], [-0.12181, 0.77763, 0.61571, -0.03681], [-0.13512, 0.77769, 0.61396, -0.0015]], "euler": [[-0.0101, 0.0462, -0.0676], [0.0185, 0.0446, -0.0457], [0.0447, 0.0391, -0.0217], [0.0637, 0.0342, 0.0014], [0.0725, 0.0355, 0.0252], [0.0724, 0.0385, 0.0428], [0.0568, 0.0399, 0.052], [0.0381, 0.05, 0.0587], [0.0185, 0.0537, 0.0644], [-0.0035, 0.0523, 0.0681], [-0.0131, 0.0465, 0.0731], [-0.015, 0.0264, 0.0819], [-0.0203, -0.0039, 0.0939], [-0.0253, -0.0357, 0.1078], [-0.0312, -0.0683, 0.1201], [-0.0226, -0.1025, 0.1292], [0.0137, -0.1328, 0.1397], [0.0673, -0.1517, 0.1518], [0.1213, -0.1542, 0.1641], [0.1661, -0.1383, 0.1766], [0.201, -0.1089, 0.1914], [0.2205, -0.0599, 0.2064], [0.2367, 0.0095, 0.2262], [0.238, 0.0929, 0.2425], [0.2166, 0.1643, 0.2521]], "stick_full": [[0.552, 0.0, 0.0, 0.0], [0.552, 0.0, 0.0, 0.0], [0.552, 0.0, 0.0, 0.0], [0.552, 0.0, 0.0, 0.0], [0.552, 0.0, 0.0, 0.0], [0.552, 0.0, 0.0, 0.0], [0.552, 0.0, 0.0, 0.0], [0.552, 0.0, 0.0, 0.0], [0.552, 0.0, 0.0, 0.0], [0.552, 0.0, 0.0, 0.0], [0.552, 0.0, 0.0, 0.0], [0.552, 0.0, 0.0, 0.0], [0.552, 0.0, 0.0, 0.0], [0.552, 0.0, 0.0, 0.0], [0.552, 0.0, 0.0, 0.0], [0.552, 0.0, 0.0, 0.0], [0.552, 0.0, 0.0, 0.0], [0.552, 0.0, 0.0, 0.0], [0.552, 0.0, 0.0, 0.0], [0.552, 0.0, 0.0, 0.0], [0.552, 0.0, 0.0, 0.0], [0.552, 0.0, 0.0, 0.0], [0.552, 0.0, 0.0, 0.0], [0.552, 0.0, 0.0, 0.0], [0.552, 0.0, 0.0, 0.0], [0.552, 0.0, 0.0, 0.0], [0.552, 0.0, 0.0, 0.0], [0.552, 0.0, 0.0, 0.0], [0.552, 0.0, 0.0, 0.0], [0.552, 0.0, 0.0, 0.0], [0.552, 0.0, 0.0, 0.0], [0.552, 0.0, 0.0, 0.0], [0.552, 0.0, 0.0, 0.0], [0.552, 0.0, 0.0, 0.0], [0.552, 0.0, 0.0, 0.0], [0.552, 0.0, 0.0, 0.0], [0.552, 0.0, 0.0, 0.0], [0.552, 0.0, 0.0, 0.0], [0.552, 0.0, 0.0, 0.0], [0.552, 